{"learner":{"attributes":{"best_iteration":"12","best_score":"184.02021402492335","scikit_learn":"{\"_estimator_type\": \"regressor\"}"},"feature_names":["lag_1h","lag_2h","lag_3h","lag_6h","lag_12h","lag_24h","lag_48h","lag_168h","rolling_mean_3h","rolling_mean_6h","rolling_mean_12h","rolling_mean_24h","rolling_std_24h","rolling_min_24h","rolling_max_24h","hour","day_of_week","day_of_month","month","quarter","week_of_year","is_weekend","is_peak_morning","is_peak_evening","is_night","hour_sin","hour_cos","dow_sin","dow_cos","hour_dow"],"feature_types":["float","float","float","float","float","float","float","float","float","float","float","float","float","float","float","int","int","int","int","int","int","int","int","int","int","float","float","float","float","int"],"gradient_booster":{"model":{"cats":{"enc":[],"feature_segments":[],"sorted_idx":[]},"gbtree_model_param":{"num_parallel_tree":"1","num_trees":"23"},"iteration_indptr":[0,1,2,3,4,5,6,7,8,9,10,11,12,13,14,15,16,17,18,19,20,21,22,23],"tree_info":[0,0,0,0,0,0,0,0,0,0,0,0,0,0,0,0,0,0,0,0,0,0,0],"trees":[{"base_weights":[-8.581151E-1,-8.476023E0,2.0526167E3,-4.4000156E1,1.8943231E2,8.267693E2,2.924202E3,-1.08814735E2,-1.3413989E1,1.26252106E2,3.483274E2,6.090497E2,3.4504075E3,7.399075E2,3.5516672E3,-1.4124359E2,-8.6286804E1,-3.342222E1,3.3269657E1,9.874808E1,1.6311815E2,6.1090295E2,3.243083E2,1.1551704E3,3.774454E2,4.3289316E2,4.0736732E1,1.1704081E2,1.3497585E3,4.336698E3,7.7465576E2,-2.773144E2,-1.3640588E2,-5.5180023E1,-9.171836E1,-4.7279163E1,-1.6883566E1,1.0839236E3,3.221432E1,9.572983E1,4.7571866E2,1.9571709E2,1.3566226E2,4.582928E3,5.090568E2,2.8500937E2,5.035789E2,2.7432425E2,1.8916079E3,2.9157736E2,1.0344044E3,7.0934176E0,2.2554953E1,2.1992998E2,2.3024551E2,2.4372148E3,5.300644E3,1.2874918E3,4.4076215E2,-3.2270226E1,-1.9642223E1,2.5885508E1,-1.3700403E1,-6.9129577E0,-4.318456E0,-1.0631939E1,-8.263362E0,-2.614508E0,-5.1511827E0,9.3348426E-1,-2.1224754E0,2.9793683E2,1.0894102E1,1.8941084E0,5.154614E0,9.379151E0,4.3421864E1,3.1330502E2,1.1381353E1,1.8782415E1,8.13287E1,1.1742972E1,1.548601E1,1.3503062E1,6.739312E2,1.5606657E2,4.3214275E1,2.244462E1,3.3442158E1,4.7393642E1,1.6152118E2,5.784585E1,-2.3827984E0,7.130845E-1,2.5185619E2,5.945338E1,2.212635E1,1.5461276E2,3.4842083E1,-1.0469437E1,5.040985E0,2.5606138E1,6.3441052E0,3.2428326E2,4.197602E1,2.4050389E2,6.1126483E2,1.555989E2,1.0670147E1,5.616266E1,1.1903386E1],"categories":[],"categories_nodes":[],"categories_segments":[],"categories_sizes":[],"default_left":[0,0,0,0,0,0,0,0,0,0,0,0,0,0,0,0,0,0,0,0,0,0,0,0,0,0,0,0,0,0,0,0,0,0,0,0,0,0,0,0,0,0,0,0,0,0,0,0,0,0,0,0,0,0,0,0,0,0,0,0,0,0,0,0,0,0,0,0,0,0,0,0,0,0,0,0,0,0,0,0,0,0,0,0,0,0,0,0,0,0,0,0,0,0,0,0,0,0,0,0,0,0,0,0,0,0,0,0,0,0,0],"id":0,"left_children":[1,3,5,7,9,11,13,15,17,19,21,23,25,27,29,31,33,35,37,39,41,43,45,47,49,-1,-1,51,53,55,57,59,61,63,65,67,69,71,73,75,77,79,81,83,85,87,89,91,93,95,97,99,-1,-1,101,103,105,107,109,-1,-1,-1,-1,-1,-1,-1,-1,-1,-1,-1,-1,-1,-1,-1,-1,-1,-1,-1,-1,-1,-1,-1,-1,-1,-1,-1,-1,-1,-1,-1,-1,-1,-1,-1,-1,-1,-1,-1,-1,-1,-1,-1,-1,-1,-1,-1,-1,-1,-1,-1,-1],"loss_changes":[5.459798E8,2.4448066E8,1.3540954E8,5.8444516E7,5.3082496E7,2.9315088E7,1.0016435E8,6.892992E6,1.871121E7,3.824768E6,9.293552E6,6.140996E6,8.9296E6,6.679281E6,1.230823E8,2.511616E6,9.37712E5,3.212689E6,6.6288165E6,2.425686E6,1.42068E6,4.8233468E7,9.585744E6,9.21119E6,1.8419065E6,0E0,0E0,1.1767933E5,8.053029E6,6.947546E7,1.829607E6,4.21203E5,9.20144E5,1.362235E5,6.21136E5,6.81086E5,7.27958E5,1.0763268E7,1.5398745E6,1.373772E6,1.5992024E7,3.439604E6,2.90159E5,2.7863416E7,9.27404E6,3.32144E6,7.373312E6,7.392653E5,9.43363E6,6.1394125E5,8.65242E5,3.4325688E4,0E0,0E0,5.25425E3,2.6268472E7,5.348403E7,1.419002E6,3.2193438E5,0E0,0E0,0E0,0E0,0E0,0E0,0E0,0E0,0E0,0E0,0E0,0E0,0E0,0E0,0E0,0E0,0E0,0E0,0E0,0E0,0E0,0E0,0E0,0E0,0E0,0E0,0E0,0E0,0E0,0E0,0E0,0E0,0E0,0E0,0E0,0E0,0E0,0E0,0E0,0E0,0E0,0E0,0E0,0E0,0E0,0E0,0E0,0E0,0E0,0E0,0E0,0E0],"parents":[2147483647,0,0,1,1,2,2,3,3,4,4,5,5,6,6,7,7,8,8,9,9,10,10,11,11,12,12,13,13,14,14,15,15,16,16,17,17,18,18,19,19,20,20,21,21,22,22,23,23,24,24,27,27,28,28,29,29,30,30,31,31,32,32,33,33,34,34,35,35,36,36,37,37,38,38,39,39,40,40,41,41,42,42,43,43,44,44,45,45,46,46,47,47,48,48,49,49,50,50,51,51,54,54,55,55,56,56,57,57,58,58],"right_children":[2,4,6,8,10,12,14,16,18,20,22,24,26,28,30,32,34,36,38,40,42,44,46,48,50,-1,-1,52,54,56,58,60,62,64,66,68,70,72,74,76,78,80,82,84,86,88,90,92,94,96,98,100,-1,-1,102,104,106,108,110,-1,-1,-1,-1,-1,-1,-1,-1,-1,-1,-1,-1,-1,-1,-1,-1,-1,-1,-1,-1,-1,-1,-1,-1,-1,-1,-1,-1,-1,-1,-1,-1,-1,-1,-1,-1,-1,-1,-1,-1,-1,-1,-1,-1,-1,-1,-1,-1,-1,-1,-1,-1],"split_conditions":[1.0592916E3,1.5729E2,7.781113E2,1.574E1,2.9275168E2,3.924E2,-5E-1,-3.6835E1,8.61725E1,2.147025E2,-9.659258E-1,6.4835E1,3.924E2,3.3115E1,1.1375325E3,-1.698E2,-7.0710677E-1,5.0445E1,-1.6096666E1,1.0592916E3,2.5881904E-1,-2.1205083E2,4.7860834E2,-1.6158333E0,9.659258E-1,4.3289316E2,4.0736732E1,6.3E1,3.924E2,1.156975E2,1.2E1,-2.1205083E2,1.1288937E1,-9.18E0,-1.0915E1,-7.0710677E-1,4.4175E1,6.397466E1,1.20450836E2,1.0592916E3,4.1906067E2,1.2E1,2.4758833E2,1.86625E1,8.42075E1,3.3483917E2,1.0592916E3,-3.9385E1,2E0,1.7808332E1,2.9275168E2,1.0014E2,2.2554953E1,2.1992998E2,2.4971E2,1.74875E2,-6.1355E1,1.0592916E3,2.2502083E2,-3.2270226E1,-1.9642223E1,2.5885508E1,-1.3700403E1,-6.9129577E0,-4.318456E0,-1.0631939E1,-8.263362E0,-2.614508E0,-5.1511827E0,9.3348426E-1,-2.1224754E0,2.9793683E2,1.0894102E1,1.8941084E0,5.154614E0,9.379151E0,4.3421864E1,3.1330502E2,1.1381353E1,1.8782415E1,8.13287E1,1.1742972E1,1.548601E1,1.3503062E1,6.739312E2,1.5606657E2,4.3214275E1,2.244462E1,3.3442158E1,4.7393642E1,1.6152118E2,5.784585E1,-2.3827984E0,7.130845E-1,2.5185619E2,5.945338E1,2.212635E1,1.5461276E2,3.4842083E1,-1.0469437E1,5.040985E0,2.5606138E1,6.3441052E0,3.2428326E2,4.197602E1,2.4050389E2,6.1126483E2,1.555989E2,1.0670147E1,5.616266E1,1.1903386E1],"split_indices":[0,0,12,0,0,6,26,0,0,0,25,1,1,13,11,0,25,0,8,4,26,13,0,6,25,0,0,7,2,4,17,13,12,0,0,25,1,12,0,6,12,18,0,1,9,0,7,6,18,6,1,1,0,0,13,3,13,3,3,0,0,0,0,0,0,0,0,0,0,0,0,0,0,0,0,0,0,0,0,0,0,0,0,0,0,0,0,0,0,0,0,0,0,0,0,0,0,0,0,0,0,0,0,0,0,0,0,0,0,0,0],"split_type":[0,0,0,0,0,0,0,0,0,0,0,0,0,0,0,0,0,0,0,0,0,0,0,0,0,0,0,0,0,0,0,0,0,0,0,0,0,0,0,0,0,0,0,0,0,0,0,0,0,0,0,0,0,0,0,0,0,0,0,0,0,0,0,0,0,0,0,0,0,0,0,0,0,0,0,0,0,0,0,0,0,0,0,0,0,0,0,0,0,0,0,0,0,0,0,0,0,0,0,0,0,0,0,0,0,0,0,0,0,0,0],"sum_hessian":[3.49E4,3.4772E4,1.28E2,2.9481E4,5.291E3,5.4E1,7.4E1,9.451E3,2.003E4,3.787E3,1.504E3,5.1E1,3E0,1.7E1,5.7E1,3.872E3,5.579E3,1.4021E4,6.009E3,2.171E3,1.616E3,1.24E2,1.38E3,1.4E1,3.7E1,2E0,1E0,9E0,8E0,4.4E1,1.3E1,1.31E2,3.741E3,8.31E2,4.748E3,7.628E3,6.393E3,5E0,6.004E3,2.155E3,1.6E1,7.36E2,8.8E2,2E0,1.22E2,1.134E3,2.46E2,7E0,7E0,3.4E1,3E0,5E0,4E0,4E0,4E0,1.6E1,2.8E1,4E0,9E0,8.2E1,4.9E1,5E0,3.736E3,3.82E2,4.49E2,1.817E3,2.931E3,1.274E3,6.354E3,9.08E2,5.485E3,1E0,4E0,3.561E3,2.443E3,2.144E3,1.1E1,1E0,1.5E1,7.28E2,8E0,4.55E2,4.25E2,1E0,1E0,7E0,1.15E2,5.12E2,6.22E2,2.41E2,5E0,3E0,4E0,2E0,5E0,5E0,2.9E1,1E0,2E0,1E0,4E0,3E0,1E0,1.1E1,5E0,7E0,2.1E1,3E0,1E0,6E0,3E0],"tree_param":{"num_deleted":"0","num_feature":"30","num_nodes":"111","size_leaf_vector":"1"}},{"base_weights":[9.472203E-1,-5.389947E0,1.457281E3,-3.4811245E1,1.8469966E2,1.0984795E3,3.9110715E3,-7.1646675E1,1.8442746E0,5.464165E2,1.6742215E2,3.4610928E3,6.780374E2,5.9805405E3,3.179715E2,-1.1813611E2,-5.671509E1,-1.407915E1,4.0649105E1,6.402346E2,4.88594E2,1.15766655E2,2.6437207E2,1.052851E3,5.33575E3,5.711076E2,4.47968E3,7.078469E1,6.9642847E3,8.8051245E2,-1.9563557E2,-1.3608508E2,-8.66064E1,-1.5437921E1,-6.6929E1,3.7145668E1,-2.0206112E1,1.1440456E2,3.0636274E1,2.256541E3,3.8061362E2,1.13676895E2,6.576898E2,2.4268237E2,5.98441E2,4.6482892E2,1.3687013E2,7.1847427E3,2.5974485E3,4.016088E2,3.0804172E3,6.655722E2,6.3748884E0,7.4598965E3,1.2518383E2,1.2076241E2,-5.036131E0,-3.104918E1,-8.92736E0,-2.069748E1,-1.263646E1,1.8917685E1,-8.799599E0,-2.9826016E0,1.7352505E0,6.2550617E1,-6.760293E0,1.2132269E0,8.135676E0,-3.020842E0,-8.438489E-1,1.5796596E1,5.337353E0,2.576194E0,9.331837E0,6.30427E2,8.165582E1,3.483998E1,1.8800175E2,9.062919E0,1.4649897E1,3.373815E2,4.868582E0,1.4889189E2,2.399516E1,3.6567852E1,1.13403175E2,-3.6023355E-1,3.1338633E1,2.1003593E2,7.781528E2,7.1513664E1,3.3597955E2,1.5036168E1,7.072988E1,4.977402E2,4.1330315E1,1.9076779E2,7.9154517E2],"categories":[],"categories_nodes":[],"categories_segments":[],"categories_sizes":[],"default_left":[0,0,0,0,0,0,0,0,0,0,0,0,0,0,0,0,0,0,0,0,0,0,0,0,0,0,0,0,0,0,0,0,0,0,0,0,0,0,0,0,0,0,0,0,0,0,0,0,0,0,0,0,0,0,0,0,0,0,0,0,0,0,0,0,0,0,0,0,0,0,0,0,0,0,0,0,0,0,0,0,0,0,0,0,0,0,0,0,0,0,0,0,0,0,0,0,0,0,0],"id":1,"left_children":[1,3,5,7,9,11,13,15,17,19,21,23,25,27,29,31,33,35,37,-1,39,41,43,45,47,49,51,-1,53,55,57,59,61,63,65,67,69,71,73,75,77,79,81,83,85,-1,87,89,91,93,95,-1,-1,97,-1,-1,-1,-1,-1,-1,-1,-1,-1,-1,-1,-1,-1,-1,-1,-1,-1,-1,-1,-1,-1,-1,-1,-1,-1,-1,-1,-1,-1,-1,-1,-1,-1,-1,-1,-1,-1,-1,-1,-1,-1,-1,-1,-1,-1],"loss_changes":[3.2378083E8,1.9536443E8,1.2952765E8,4.0844344E7,2.9168928E7,1.3076069E8,1.3937811E8,1.0466776E7,9.369881E6,6.899396E7,2.2355096E7,8.467416E7,4.4189628E7,5.731331E7,2.4837282E6,2.063444E6,4.814488E6,3.3752915E6,3.254747E6,0E0,3.9612428E7,3.229764E6,1.1107504E7,3.229683E7,3.7031136E7,4.6824256E7,2.840278E7,0E0,1.897216E7,1.2789322E6,3.3322984E4,1.582816E6,5.27474E5,1.0700708E6,4.314884E6,1.2696481E6,1.1301642E6,1.3926285E6,1.1848872E6,6.47954E7,9.053372E6,2.186524E6,1.8030844E7,4.611248E6,1.1303704E7,0E0,2.2432088E5,1.860704E6,6.206724E6,8.11156E6,3.3358612E7,0E0,0E0,7.662944E6,0E0,0E0,0E0,0E0,0E0,0E0,0E0,0E0,0E0,0E0,0E0,0E0,0E0,0E0,0E0,0E0,0E0,0E0,0E0,0E0,0E0,0E0,0E0,0E0,0E0,0E0,0E0,0E0,0E0,0E0,0E0,0E0,0E0,0E0,0E0,0E0,0E0,0E0,0E0,0E0,0E0,0E0,0E0,0E0,0E0],"parents":[2147483647,0,0,1,1,2,2,3,3,4,4,5,5,6,6,7,7,8,8,9,9,10,10,11,11,12,12,13,13,14,14,15,15,16,16,17,17,18,18,20,20,21,21,22,22,23,23,24,24,25,25,26,26,28,28,29,29,30,30,31,31,32,32,33,33,34,34,35,35,36,36,37,37,38,38,39,39,40,40,41,41,42,42,43,43,44,44,46,46,47,47,48,48,49,49,50,50,53,53],"right_children":[2,4,6,8,10,12,14,16,18,20,22,24,26,28,30,32,34,36,38,-1,40,42,44,46,48,50,52,-1,54,56,58,60,62,64,66,68,70,72,74,76,78,80,82,84,86,-1,88,90,92,94,96,-1,-1,98,-1,-1,-1,-1,-1,-1,-1,-1,-1,-1,-1,-1,-1,-1,-1,-1,-1,-1,-1,-1,-1,-1,-1,-1,-1,-1,-1,-1,-1,-1,-1,-1,-1,-1,-1,-1,-1,-1,-1,-1,-1,-1,-1,-1,-1],"split_conditions":[1.2350494E3,1.6999556E2,8.660254E-1,4.3483334E1,-9.659258E-1,2.24575E1,3.5E1,-3.2964443E1,1.06798615E2,-2.1205083E2,2.8138528E2,2.1467583E2,1.0592916E3,7.781113E2,1E1,-5E-1,-7.0710677E-1,-8.660254E-1,-8.660254E-1,6.402346E2,4.3123333E1,5.1E1,5.8204333E2,3.438E1,3.3483917E2,9E1,4.6105E1,7.078469E1,2.9275168E2,2.2502083E2,1.47835E2,-9.643E1,1.1288937E1,9.05525E1,-9.360667E1,1.189225E2,6.869E1,6.123234E-17,2.2502417E2,9.278917E1,4.7860834E2,3.2414584E2,1.1253E2,-1.2502917E2,5.349097E2,4.6482892E2,9.4090836E1,1.4741667E1,1.9669333E2,7.0834067E3,1.5729E2,6.655722E2,6.3748884E0,1.548025E2,1.2518383E2,1.2076241E2,-5.036131E0,-3.104918E1,-8.92736E0,-2.069748E1,-1.263646E1,1.8917685E1,-8.799599E0,-2.9826016E0,1.7352505E0,6.2550617E1,-6.760293E0,1.2132269E0,8.135676E0,-3.020842E0,-8.438489E-1,1.5796596E1,5.337353E0,2.576194E0,9.331837E0,6.30427E2,8.165582E1,3.483998E1,1.8800175E2,9.062919E0,1.4649897E1,3.373815E2,4.868582E0,1.4889189E2,2.399516E1,3.6567852E1,1.13403175E2,-3.6023355E-1,3.1338633E1,2.1003593E2,7.781528E2,7.1513664E1,3.3597955E2,1.5036168E1,7.072988E1,4.977402E2,4.1330315E1,1.9076779E2,7.9154517E2],"split_indices":[8,8,25,8,25,3,20,8,8,13,8,5,6,12,18,26,25,25,25,0,2,20,5,7,5,29,3,0,3,2,3,8,12,5,2,5,8,26,5,6,3,14,1,5,8,0,5,4,4,14,3,0,0,3,0,0,0,0,0,0,0,0,0,0,0,0,0,0,0,0,0,0,0,0,0,0,0,0,0,0,0,0,0,0,0,0,0,0,0,0,0,0,0,0,0,0,0,0,0],"split_type":[0,0,0,0,0,0,0,0,0,0,0,0,0,0,0,0,0,0,0,0,0,0,0,0,0,0,0,0,0,0,0,0,0,0,0,0,0,0,0,0,0,0,0,0,0,0,0,0,0,0,0,0,0,0,0,0,0,0,0,0,0,0,0,0,0,0,0,0,0,0,0,0,0,0,0,0,0,0,0,0,0,0,0,0,0,0,0,0,0,0,0,0,0,0,0,0,0,0,0],"sum_hessian":[3.5081E4,3.493E4,1.51E2,3.0249E4,4.681E3,1.33E2,1.8E1,1.5087E4,1.5162E4,2.12E2,4.469E3,1.9E1,1.14E2,1.1E1,7E0,3.666E3,1.1421E4,1.0751E4,4.411E3,1E0,2.11E2,2.917E3,1.552E3,9E0,1E1,1.12E2,2E0,2E0,9E0,3E0,4E0,2.334E3,1.332E3,2.266E3,9.155E3,1.148E3,9.603E3,5.26E2,3.885E3,1.1E1,2E2,2.907E3,1E1,1.459E3,9.3E1,1E0,8E0,5E0,5E0,1.06E2,6E0,1E0,1E0,8E0,1E0,2E0,1E0,1E0,3E0,2.79E2,2.055E3,6E0,1.326E3,1.575E3,6.91E2,8E0,9.147E3,7.34E2,4.14E2,5.19E3,4.413E3,3.06E2,2.2E2,3.606E3,2.79E2,2E0,9E0,1.97E2,3E0,1.71E3,1.197E3,1E0,9E0,2E0,1.457E3,6.6E1,2.7E1,5E0,3E0,1E0,4E0,2E0,3E0,5.9E1,4.7E1,3E0,3E0,1E0,7E0],"tree_param":{"num_deleted":"0","num_feature":"30","num_nodes":"99","size_leaf_vector":"1"}},{"base_weights":[-5.132816E-1,-6.2887897E0,1.5477258E3,-3.294938E1,1.7836008E2,1.3133795E3,4.9573223E3,-7.44304E1,1.5344741E0,1.3014291E2,3.5039304E2,7.876298E2,2.0401688E3,6.3374395E3,5.446134E1,-1.10928246E2,-5.530637E1,-1.7185633E1,3.7243153E1,2.6111166E2,1.1973966E2,5.7642145E2,3.1215982E2,2.5537659E3,6.2021E2,3.416075E2,2.4987305E3,5.2016937E1,7.39684E2,-2.288252E2,-1.0737878E2,-7.1039185E1,-4.524634E1,-2.7388016E1,-4.7014437E0,1.2177444E3,3.620399E1,4.13766E3,2.1354825E2,8.0123405E1,1.4741133E2,1.6626195E3,4.501551E2,2.6965805E2,5.9483746E2,3.6222349E3,2.778519E1,1.0517019E3,3.6094623E2,7.7863586E2,1.09405174E2,1.6027677E3,3.4046438E3,-1.6392172E1,-2.6985737E1,-1.250111E1,-9.519101E0,-5.245965E0,-7.8819857E0,-2.0361993E0,-4.8749423E0,-2.773377E0,1.8261944E1,3.9286945E0,-9.4127387E-1,2.7991245E2,1.2259337E1,2.4646752E0,5.3559375E0,1.2421126E1,6.082229E2,9.212683E1,1.5795766E1,6.515645E0,9.070657E0,1.3905853E1,3.0954182E1,1.9434734E1,4.2666196E2,3.57297E1,1.9644214E2,2.4594913E1,4.6413963E1,2.2630138E2,5.415092E1,4.4800412E2,5.243584E1,5.9755444E1,1.9420583E2,2.214747E1,1.4045093E2,1.1891949E2,2.4535124E1,2.5908058E0,1.4681907E1,2.9130603E2,1.046025E2,2.0697441E2,5.9519525E2],"categories":[],"categories_nodes":[],"categories_segments":[],"categories_sizes":[],"default_left":[0,0,0,0,0,0,0,0,0,0,0,0,0,0,0,0,0,0,0,0,0,0,0,0,0,0,0,0,0,0,0,0,0,0,0,0,0,0,0,0,0,0,0,0,0,0,0,0,0,0,0,0,0,0,0,0,0,0,0,0,0,0,0,0,0,0,0,0,0,0,0,0,0,0,0,0,0,0,0,0,0,0,0,0,0,0,0,0,0,0,0,0,0,0,0,0,0,0,0],"id":2,"left_children":[1,3,5,7,9,11,13,15,17,19,21,23,25,27,-1,29,31,33,35,37,39,41,43,45,47,49,51,-1,-1,53,55,57,59,61,63,65,67,69,71,73,75,77,79,81,83,85,-1,87,89,91,93,95,97,-1,-1,-1,-1,-1,-1,-1,-1,-1,-1,-1,-1,-1,-1,-1,-1,-1,-1,-1,-1,-1,-1,-1,-1,-1,-1,-1,-1,-1,-1,-1,-1,-1,-1,-1,-1,-1,-1,-1,-1,-1,-1,-1,-1,-1,-1],"loss_changes":[3.1277824E8,1.7156216E8,9.736192E7,4.356087E7,3.642723E7,4.5392256E7,4.526832E7,9.6428E6,1.1117303E7,4.650252E6,8.133384E6,2.00009E7,3.886981E7,3.3128496E7,0E0,1.963972E6,1.432782E6,1.3895852E6,6.972694E6,4.5580224E7,3.479712E6,1.8178084E7,9.751304E6,1.3583624E7,7.227424E6,1.1324726E6,2.7009216E7,0E0,0E0,3.23233E5,9.79836E5,5.07166E5,4.8167E5,4.410035E5,1.01751194E6,8.315804E6,1.1451895E6,2.265718E7,9.690016E6,2.01892E5,2.494764E6,5.269769E7,1.6874384E7,3.201044E6,8.293096E6,8.279864E6,0E0,8.948088E6,6.092857E6,5.838655E5,2.4294508E4,1.3001372E7,5.228781E7,0E0,0E0,0E0,0E0,0E0,0E0,0E0,0E0,0E0,0E0,0E0,0E0,0E0,0E0,0E0,0E0,0E0,0E0,0E0,0E0,0E0,0E0,0E0,0E0,0E0,0E0,0E0,0E0,0E0,0E0,0E0,0E0,0E0,0E0,0E0,0E0,0E0,0E0,0E0,0E0,0E0,0E0,0E0,0E0,0E0,0E0],"parents":[2147483647,0,0,1,1,2,2,3,3,4,4,5,5,6,6,7,7,8,8,9,9,10,10,11,11,12,12,13,13,15,15,16,16,17,17,18,18,19,19,20,20,21,21,22,22,23,23,24,24,25,25,26,26,29,29,30,30,31,31,32,32,33,33,34,34,35,35,36,36,37,37,38,38,39,39,40,40,41,41,42,42,43,43,44,44,45,45,47,47,48,48,49,49,50,50,51,51,52,52],"right_children":[2,4,6,8,10,12,14,16,18,20,22,24,26,28,-1,30,32,34,36,38,40,42,44,46,48,50,52,-1,-1,54,56,58,60,62,64,66,68,70,72,74,76,78,80,82,84,86,-1,88,90,92,94,96,98,-1,-1,-1,-1,-1,-1,-1,-1,-1,-1,-1,-1,-1,-1,-1,-1,-1,-1,-1,-1,-1,-1,-1,-1,-1,-1,-1,-1,-1,-1,-1,-1,-1,-1,-1,-1,-1,-1,-1,-1,-1,-1,-1,-1,-1,-1],"split_conditions":[1.0592916E3,1.77985E2,4.7860834E2,3.82E1,3.3483917E2,5.1059253E2,4.2347833E2,-2.6409166E1,9.662417E1,-9.659258E-1,2.7528082E2,-9.659258E-1,-5E-1,2.3028E2,5.446134E1,-1.698E2,8.599167E0,6.2429165E1,-1.6096666E1,-2.1205083E2,2.1975583E2,7.541971E1,5.8204333E2,1.0499834E2,-2.2252093E-1,7.481781E2,2.3E1,5.2016937E1,7.39684E2,6.234898E-1,-5.31625E1,-2.5881904E-1,3.5758333E0,5.9942676E2,4.4175E1,3.0425E1,1.35065E2,1.86625E1,1.2E1,1.3312416E2,4.2347833E2,6.9603905E1,1.0592916E3,9.659258E-1,1.9286792E2,3.2120584E2,2.778519E1,3.0750024E3,3.4957834E2,1.4331583E2,3.924E2,3.2120584E2,1.74875E2,-1.6392172E1,-2.6985737E1,-1.250111E1,-9.519101E0,-5.245965E0,-7.8819857E0,-2.0361993E0,-4.8749423E0,-2.773377E0,1.8261944E1,3.9286945E0,-9.4127387E-1,2.7991245E2,1.2259337E1,2.4646752E0,5.3559375E0,1.2421126E1,6.082229E2,9.212683E1,1.5795766E1,6.515645E0,9.070657E0,1.3905853E1,3.0954182E1,1.9434734E1,4.2666196E2,3.57297E1,1.9644214E2,2.4594913E1,4.6413963E1,2.2630138E2,5.415092E1,4.4800412E2,5.243584E1,5.9755444E1,1.9420583E2,2.214747E1,1.4045093E2,1.1891949E2,2.4535124E1,2.5908058E0,1.4681907E1,2.9130603E2,1.046025E2,2.0697441E2,5.9519525E2],"split_indices":[0,0,6,0,0,11,3,0,0,25,1,25,26,1,0,0,0,0,8,13,0,12,0,6,28,11,29,0,0,28,0,25,1,11,1,5,0,1,20,5,5,12,5,25,9,1,0,14,4,3,1,1,4,0,0,0,0,0,0,0,0,0,0,0,0,0,0,0,0,0,0,0,0,0,0,0,0,0,0,0,0,0,0,0,0,0,0,0,0,0,0,0,0,0,0,0,0,0,0],"split_type":[0,0,0,0,0,0,0,0,0,0,0,0,0,0,0,0,0,0,0,0,0,0,0,0,0,0,0,0,0,0,0,0,0,0,0,0,0,0,0,0,0,0,0,0,0,0,0,0,0,0,0,0,0,0,0,0,0,0,0,0,0,0,0,0,0,0,0,0,0,0,0,0,0,0,0,0,0,0,0,0,0,0,0,0,0,0,0,0,0,0,0,0,0,0,0,0,0,0,0],"sum_hessian":[3.4977E4,3.4848E4,1.29E2,3.0452E4,4.396E3,1.22E2,7E0,1.3823E4,1.6629E4,3.435E3,9.61E2,7.2E1,5E1,5E0,2E0,4.751E3,9.072E3,1.091E4,5.719E3,2.51E2,3.184E3,1.37E2,8.24E2,5E0,6.7E1,1.1E1,3.9E1,1E0,4E0,1.37E2,4.614E3,3.536E3,5.536E3,6.003E3,4.907E3,4E0,5.715E3,2E0,2.49E2,1.311E3,1.873E3,1.3E1,1.24E2,7.18E2,1.06E2,3E0,2E0,2.4E1,4.3E1,3E0,8E0,2.1E1,1.8E1,5.5E1,8.2E1,1.882E3,2.732E3,1.046E3,2.49E3,6.84E2,4.852E3,5.994E3,9E0,4.74E2,4.433E3,1E0,3E0,3.432E3,2.283E3,1E0,1E0,1.7E1,2.32E2,5.46E2,7.65E2,1.783E3,9E1,9E0,4E0,1.18E2,6E0,6.42E2,7.6E1,2E0,1.04E2,2E0,1E0,1.7E1,7E0,3.9E1,4E0,1E0,2E0,3E0,5E0,5E0,1.6E1,1.3E1,5E0],"tree_param":{"num_deleted":"0","num_feature":"30","num_nodes":"99","size_leaf_vector":"1"}},{"base_weights":[-1.1539192E-2,-6.063761E0,1.4934702E3,-2.9838758E1,1.6130194E2,7.520634E2,2.2783308E3,-7.344871E1,-2.9436736E0,1.1537645E2,3.229523E2,3.4481885E2,2.2067676E3,1.6565111E3,4.195707E3,-1.0464587E2,-5.8041122E1,-2.0005865E1,3.0916378E1,8.352106E1,1.5010466E2,5.0328073E2,2.671584E2,1.6234963E3,2.223042E2,1.2907548E1,2.9369705E3,3.044206E3,8.558592E2,9.8300726E2,5.1846816E3,-2.063233E2,-1.01E2,-6.924895E1,-4.7026787E1,-2.922066E1,-7.889335E0,1.0941248E3,3.0069117E1,1.0147235E2,6.8124504E1,5.13301E2,1.4452446E2,4.770694E2,3.1872592E2,2.1959927E3,2.588769E2,5.793081E1,2.6478632E2,-2.212238E2,3.3821628E2,-2.5487389E1,4.7033305E0,3.5513806E3,-9.002027E0,1.0884529E3,5.5972974E3,1.7858971E3,4.124041E2,1.5554204E2,8.2891785E1,7.9358075E2,2.8171304E3,-2.5727869E1,-1.4088717E1,-7.2672205E0,-1.0688176E1,-3.975938E0,-7.5052056E0,-3.0223024E0,-5.246674E0,-2.9490535E0,2.9557241E1,2.082062E0,-1.1673702E0,2.6591684E2,3.8046849E0,2.018439E0,5.03694E0,7.2351303E0,1.669084E1,1.5898676E1,6.6498413E0,2.5197647E0,2.9474936E2,1.3883585E1,3.4111496E1,4.2612926E1,1.799174E2,3.241304E2,5.2634997E0,2.1880438E1,5.3829998E1,1.2018825E0,7.4827385E0,-1.3105812E1,-3.2122414E1,1.3171556E1,7.286633E1,2.1002762E-1,-4.038136E0,6.848258E1,4.1824033E2,1.7881828E2,-2.487853E1,1.4966753E2,6.714709E2,2.600603E2,2.8810942E1,4.047386E0,6.5765274E1,-2.1444101E1,3.388287E1,6.021999E1,3.455057E2],"categories":[],"categories_nodes":[],"categories_segments":[],"categories_sizes":[],"default_left":[0,0,0,0,0,0,0,0,0,0,0,0,0,0,0,0,0,0,0,0,0,0,0,0,0,0,0,0,0,0,0,0,0,0,0,0,0,0,0,0,0,0,0,0,0,0,0,0,0,0,0,0,0,0,0,0,0,0,0,0,0,0,0,0,0,0,0,0,0,0,0,0,0,0,0,0,0,0,0,0,0,0,0,0,0,0,0,0,0,0,0,0,0,0,0,0,0,0,0,0,0,0,0,0,0,0,0,0,0,0,0,0,0,0,0],"id":3,"left_children":[1,3,5,7,9,11,13,15,17,19,21,23,25,27,29,31,33,35,37,39,41,43,45,47,49,51,53,55,57,59,61,63,65,67,69,71,73,75,77,79,81,83,85,87,-1,89,91,93,-1,95,97,99,-1,101,-1,103,105,107,109,-1,111,-1,113,-1,-1,-1,-1,-1,-1,-1,-1,-1,-1,-1,-1,-1,-1,-1,-1,-1,-1,-1,-1,-1,-1,-1,-1,-1,-1,-1,-1,-1,-1,-1,-1,-1,-1,-1,-1,-1,-1,-1,-1,-1,-1,-1,-1,-1,-1,-1,-1,-1,-1,-1,-1],"loss_changes":[3.1577325E8,1.3845429E8,8.033434E7,3.573431E7,3.2093224E7,4.3077924E7,7.412304E7,5.580292E6,1.0888454E7,3.717816E6,9.494056E6,8.881652E6,2.5593192E7,5.6280416E7,4.5739264E7,1.403E6,9.57394E5,1.39898E6,5.6556285E6,4.79791E5,3.192796E6,1.4307984E7,1.1139912E7,7.864901E6,2.9023972E6,7.752191E3,2.2637808E7,8.877805E7,1.3698318E7,2.4470935E6,5.580387E7,4.03844E5,6.10364E5,6.56716E5,3.57471E5,6.32614E5,5.885764E5,8.162597E6,1.265359E6,1.5333145E6,1.29915E5,2.8440734E7,1.72962E6,1.4319092E7,0E0,6.550492E6,8.067288E6,1.4192451E3,0E0,6.6054875E4,3.4515515E6,1.3213096E3,0E0,1.5223912E7,0E0,1.1673491E7,2.6606112E7,1.2673276E7,2.2536965E6,0E0,3.009665E5,0E0,9.222672E6,0E0,0E0,0E0,0E0,0E0,0E0,0E0,0E0,0E0,0E0,0E0,0E0,0E0,0E0,0E0,0E0,0E0,0E0,0E0,0E0,0E0,0E0,0E0,0E0,0E0,0E0,0E0,0E0,0E0,0E0,0E0,0E0,0E0,0E0,0E0,0E0,0E0,0E0,0E0,0E0,0E0,0E0,0E0,0E0,0E0,0E0,0E0,0E0,0E0,0E0,0E0,0E0],"parents":[2147483647,0,0,1,1,2,2,3,3,4,4,5,5,6,6,7,7,8,8,9,9,10,10,11,11,12,12,13,13,14,14,15,15,16,16,17,17,18,18,19,19,20,20,21,21,22,22,23,23,24,24,25,25,26,26,27,27,28,28,29,29,30,30,31,31,32,32,33,33,34,34,35,35,36,36,37,37,38,38,39,39,40,40,41,41,42,42,43,43,45,45,46,46,47,47,49,49,50,50,51,51,53,53,55,55,56,56,57,57,58,58,60,60,62,62],"right_children":[2,4,6,8,10,12,14,16,18,20,22,24,26,28,30,32,34,36,38,40,42,44,46,48,50,52,54,56,58,60,62,64,66,68,70,72,74,76,78,80,82,84,86,88,-1,90,92,94,-1,96,98,100,-1,102,-1,104,106,108,110,-1,112,-1,114,-1,-1,-1,-1,-1,-1,-1,-1,-1,-1,-1,-1,-1,-1,-1,-1,-1,-1,-1,-1,-1,-1,-1,-1,-1,-1,-1,-1,-1,-1,-1,-1,-1,-1,-1,-1,-1,-1,-1,-1,-1,-1,-1,-1,-1,-1,-1,-1,-1,-1,-1,-1],"split_conditions":[1.0592916E3,1.77985E2,1.9256667E2,2.9665E1,3.3483917E2,5.2E1,8.660254E-1,-3.6835E1,9.1753334E1,2.3623917E2,-8.660254E-1,1E0,1.67022E3,4.6105E1,5.158618E2,-1.698E2,4.6433334E0,5.779E1,-1.6096666E1,2.5881904E-1,-2.1205083E2,5E1,3.3852E2,1.2350494E3,-9.283E1,6.0345E1,1.74875E2,7.2820917E2,-9.659258E-1,2.9275168E2,3.924E2,-2.3834E2,-7.0710677E-1,-4.0666668E1,7.2175E0,1.0592916E3,4.5145832E1,-3.815917E1,1.3891E2,1.6E1,-3.5665833E1,3.5E1,4.3E1,1.0592916E3,3.1872592E2,2.0577083E2,9.659258E-1,1.7165916E2,2.6478632E2,2.5E1,5E-1,1.2766666E1,4.7033305E0,5.484E1,-9.002027E0,3.924E2,-1.7943333E1,1E0,2.7517166E2,1.5554204E2,3.669175E2,7.9358075E2,4.7860834E2,-2.5727869E1,-1.4088717E1,-7.2672205E0,-1.0688176E1,-3.975938E0,-7.5052056E0,-3.0223024E0,-5.246674E0,-2.9490535E0,2.9557241E1,2.082062E0,-1.1673702E0,2.6591684E2,3.8046849E0,2.018439E0,5.03694E0,7.2351303E0,1.669084E1,1.5898676E1,6.6498413E0,2.5197647E0,2.9474936E2,1.3883585E1,3.4111496E1,4.2612926E1,1.799174E2,3.241304E2,5.2634997E0,2.1880438E1,5.3829998E1,1.2018825E0,7.4827385E0,-1.3105812E1,-3.2122414E1,1.3171556E1,7.286633E1,2.1002762E-1,-4.038136E0,6.848258E1,4.1824033E2,1.7881828E2,-2.487853E1,1.4966753E2,6.714709E2,2.600603E2,2.8810942E1,4.047386E0,6.5765274E1,-2.1444101E1,3.388287E1,6.021999E1,3.455057E2],"split_indices":[0,0,5,0,0,29,25,0,0,0,25,15,14,3,10,0,0,0,8,26,13,20,14,8,13,5,3,10,25,1,1,13,25,2,1,3,1,3,0,15,5,29,20,7,0,1,25,1,0,29,25,1,0,5,0,1,3,16,5,0,1,0,1,0,0,0,0,0,0,0,0,0,0,0,0,0,0,0,0,0,0,0,0,0,0,0,0,0,0,0,0,0,0,0,0,0,0,0,0,0,0,0,0,0,0,0,0,0,0,0,0,0,0,0,0],"split_type":[0,0,0,0,0,0,0,0,0,0,0,0,0,0,0,0,0,0,0,0,0,0,0,0,0,0,0,0,0,0,0,0,0,0,0,0,0,0,0,0,0,0,0,0,0,0,0,0,0,0,0,0,0,0,0,0,0,0,0,0,0,0,0,0,0,0,0,0,0,0,0,0,0,0,0,0,0,0,0,0,0,0,0,0,0,0,0,0,0,0,0,0,0,0,0,0,0,0,0,0,0,0,0,0,0,0,0,0,0,0,0,0,0,0,0],"sum_hessian":[3.4933E4,3.4793E4,1.4E2,3.0466E4,4.327E3,7.3E1,6.7E1,1.1621E4,1.8845E4,3.371E3,9.56E2,5.8E1,1.5E1,5.2E1,1.5E1,3.84E3,7.781E3,1.2531E4,6.314E3,1.76E3,1.611E3,2.24E2,7.32E2,4E0,5.4E1,4E0,1.1E1,1.8E1,3.4E1,4E0,1.1E1,1.31E2,3.709E3,3.854E3,3.927E3,7.117E3,5.414E3,4E0,6.31E3,8.1E2,9.5E2,2.3E1,1.588E3,2.23E2,1E0,2E0,7.3E2,2E0,2E0,1.1E1,4.3E1,2E0,2E0,9E0,2E0,1.1E1,7E0,1E1,2.4E1,2E0,2E0,4E0,7E0,7.2E1,5.9E1,6.4E2,3.069E3,6.35E2,3.219E3,9.62E2,2.965E3,7.112E3,5E0,6.3E2,4.784E3,1E0,3E0,4.245E3,2.065E3,5.62E2,2.48E2,1.5E1,9.35E2,2E1,3E0,1.545E3,4.3E1,2.16E2,7E0,1E0,1E0,6.4E2,9E1,1E0,1E0,7E0,4E0,2.9E1,1.4E1,1E0,1E0,2E0,7E0,7E0,4E0,2E0,5E0,6E0,4E0,1E1,1.4E1,1E0,1E0,2E0,5E0],"tree_param":{"num_deleted":"0","num_feature":"30","num_nodes":"115","size_leaf_vector":"1"}},{"base_weights":[2.8301886E-1,-4.831879E0,1.3411925E3,-2.9193834E1,1.33444E2,4.1896472E2,2.116704E3,-7.087909E1,-7.1797743E0,9.4792915E1,3.0630203E2,2.7290082E2,2.0294932E3,2.5676736E3,7.2359045E2,-1.0543999E2,-5.980975E1,-2.1773937E1,1.985544E1,7.143765E1,1.3143489E2,6.30696E2,2.6969177E2,-1.1175011E2,3.6530527E2,3.026075E2,3.5638016E1,3.6553909E3,1.6427384E3,4.339173E2,2.1238414E2,-1.9728664E2,-9.9786865E1,-7.044065E1,-4.6978268E1,-2.8517496E1,-1.034788E1,7.7043774E2,1.9079391E1,6.4046715E1,1.745421E2,3.328911E2,1.2062763E2,4.7447034E2,2.5491978E3,1.4950779E3,2.5931955E2,1.5359953E1,-1.7723764E2,1.142715E2,2.86327E2,4.355518E3,1.23784355E2,1.307853E2,2.3564834E3,1.7331996E2,2.443809E2,-1.3574023E1,-2.376849E1,-1.082941E1,-8.023764E0,-7.948349E0,-5.4304476E0,-2.66883E0,-5.1256056E0,-9.0457267E-1,-3.1490903E0,2.1602671E-1,-1.7043991E0,2.5262097E2,5.6757455E0,9.202679E-1,3.3759153E0,5.321487E0,7.9932823E0,2.0054259E2,1.4159273E1,1.9282782E2,2.075074E1,1.1564627E1,2.4917814E1,3.6274227E1,1.9781895E2,-9.359958E0,4.5547208E2,2.568585E2,4.777676E0,2.1929968E2,2.5447594E1,-5.859571E-1,5.0169024E0,-1.9156523E1,-3.8422246E0,4.437344E1,-1.6863085E0,3.737408E1,5.327597E2,-2.6692087E1,8.433526E1,1.9737585E2,-2.508779E1,3.555892E2,1.1605946E2,8.005083E-1,6.3698975E1],"categories":[],"categories_nodes":[],"categories_segments":[],"categories_sizes":[],"default_left":[0,0,0,0,0,0,0,0,0,0,0,0,0,0,0,0,0,0,0,0,0,0,0,0,0,0,0,0,0,0,0,0,0,0,0,0,0,0,0,0,0,0,0,0,0,0,0,0,0,0,0,0,0,0,0,0,0,0,0,0,0,0,0,0,0,0,0,0,0,0,0,0,0,0,0,0,0,0,0,0,0,0,0,0,0,0,0,0,0,0,0,0,0,0,0,0,0,0,0,0,0,0,0,0,0],"id":4,"left_children":[1,3,5,7,9,11,13,15,17,19,21,23,25,27,29,31,33,35,37,39,41,43,45,47,49,-1,-1,51,53,55,-1,57,59,61,63,65,67,69,71,73,75,77,79,81,83,85,87,89,91,-1,93,95,97,99,101,-1,103,-1,-1,-1,-1,-1,-1,-1,-1,-1,-1,-1,-1,-1,-1,-1,-1,-1,-1,-1,-1,-1,-1,-1,-1,-1,-1,-1,-1,-1,-1,-1,-1,-1,-1,-1,-1,-1,-1,-1,-1,-1,-1,-1,-1,-1,-1,-1,-1],"loss_changes":[2.400513E8,1.1745932E8,9.423429E7,2.7203566E7,3.4866576E7,1.4030803E7,4.337584E7,3.913068E6,7.6552205E6,3.64478E6,1.1159664E7,2.10237E6,7.2582E6,4.832227E7,6.784859E6,1.270028E6,1.055494E6,9.7056E5,3.9473115E6,1.977718E6,3.576116E6,2.7563224E7,1.0529976E7,1.0262803E5,2.558394E6,0E0,0E0,5.880221E7,3.3145184E7,3.762683E6,0E0,3.232495E5,3.8079E5,6.14794E5,3.04147E5,4.58433E5,3.918486E5,8.62778E6,9.8502175E5,4.15082E5,1.0212638E7,1.6402641E7,9.8163E5,1.4402884E7,3.75281E7,1.0752832E7,7.430912E6,3.9915598E3,8.527734E3,0E0,2.1073975E6,7.542032E7,1.6308612E6,8.2326905E6,2.599412E7,0E0,1.4796882E6,0E0,0E0,0E0,0E0,0E0,0E0,0E0,0E0,0E0,0E0,0E0,0E0,0E0,0E0,0E0,0E0,0E0,0E0,0E0,0E0,0E0,0E0,0E0,0E0,0E0,0E0,0E0,0E0,0E0,0E0,0E0,0E0,0E0,0E0,0E0,0E0,0E0,0E0,0E0,0E0,0E0,0E0,0E0,0E0,0E0,0E0,0E0,0E0],"parents":[2147483647,0,0,1,1,2,2,3,3,4,4,5,5,6,6,7,7,8,8,9,9,10,10,11,11,12,12,13,13,14,14,15,15,16,16,17,17,18,18,19,19,20,20,21,21,22,22,23,23,24,24,27,27,28,28,29,29,31,31,32,32,33,33,34,34,35,35,36,36,37,37,38,38,39,39,40,40,41,41,42,42,43,43,44,44,45,45,46,46,47,47,48,48,50,50,51,51,52,52,53,53,54,54,56,56],"right_children":[2,4,6,8,10,12,14,16,18,20,22,24,26,28,30,32,34,36,38,40,42,44,46,48,50,-1,-1,52,54,56,-1,58,60,62,64,66,68,70,72,74,76,78,80,82,84,86,88,90,92,-1,94,96,98,100,102,-1,104,-1,-1,-1,-1,-1,-1,-1,-1,-1,-1,-1,-1,-1,-1,-1,-1,-1,-1,-1,-1,-1,-1,-1,-1,-1,-1,-1,-1,-1,-1,-1,-1,-1,-1,-1,-1,-1,-1,-1,-1,-1,-1,-1,-1,-1,-1,-1,-1],"split_conditions":[1.0592916E3,1.5976083E2,7.781113E2,2.143E1,3.3483917E2,4.7860834E2,1.1375325E3,-4.9030834E1,8.06275E1,2.3623917E2,2.7198193E2,-1.2545E1,3.2120584E2,4.3388373E-1,2.6049667E2,-1.698E2,-3.0758333E0,5.543E1,-1.6096666E1,2.9987918E2,9E0,3.9E1,3.4754416E2,7E0,7.245E0,3.026075E2,3.5638016E1,2.6057166E2,1.5979666E2,-5.48E1,2.1238414E2,6.234898E-1,1.5E1,1.4E1,-1.099E1,1.0825833E1,5.66E1,3.0425E1,1.18995E2,1.6563916E2,1.6282417E2,-2.1205083E2,4.3E1,2.9987918E2,5.543E1,4.3388373E-1,-1.2502917E2,1.3501E2,2.0577083E2,1.142715E2,6.234898E-1,5.484E1,3.924E2,1E0,5.9942676E2,1.7331996E2,7.5E1,-1.3574023E1,-2.376849E1,-1.082941E1,-8.023764E0,-7.948349E0,-5.4304476E0,-2.66883E0,-5.1256056E0,-9.0457267E-1,-3.1490903E0,2.1602671E-1,-1.7043991E0,2.5262097E2,5.6757455E0,9.202679E-1,3.3759153E0,5.321487E0,7.9932823E0,2.0054259E2,1.4159273E1,1.9282782E2,2.075074E1,1.1564627E1,2.4917814E1,3.6274227E1,1.9781895E2,-9.359958E0,4.5547208E2,2.568585E2,4.777676E0,2.1929968E2,2.5447594E1,-5.859571E-1,5.0169024E0,-1.9156523E1,-3.8422246E0,4.437344E1,-1.6863085E0,3.737408E1,5.327597E2,-2.6692087E1,8.433526E1,1.9737585E2,-2.508779E1,3.555892E2,1.1605946E2,8.005083E-1,6.3698975E1],"split_indices":[0,0,12,0,0,5,11,0,0,0,8,5,2,27,7,0,0,0,8,4,20,20,14,18,5,0,0,6,5,4,0,28,15,15,2,2,2,5,0,5,0,13,20,3,5,27,5,2,3,0,28,5,6,15,11,0,29,0,0,0,0,0,0,0,0,0,0,0,0,0,0,0,0,0,0,0,0,0,0,0,0,0,0,0,0,0,0,0,0,0,0,0,0,0,0,0,0,0,0,0,0,0,0,0,0],"split_type":[0,0,0,0,0,0,0,0,0,0,0,0,0,0,0,0,0,0,0,0,0,0,0,0,0,0,0,0,0,0,0,0,0,0,0,0,0,0,0,0,0,0,0,0,0,0,0,0,0,0,0,0,0,0,0,0,0,0,0,0,0,0,0,0,0,0,0,0,0,0,0,0,0,0,0,0,0,0,0,0,0,0,0,0,0,0,0,0,0,0,0,0,0,0,0,0,0,0,0,0,0,0,0,0,0],"sum_hessian":[3.4998E4,3.4866E4,1.32E2,2.9644E4,5.222E3,6.1E1,7.1E1,1.0244E4,1.94E4,4.269E3,9.53E2,5.7E1,4E0,5.3E1,1.8E1,2.483E3,7.761E3,1.2599E4,6.801E3,2.609E3,1.66E3,9.5E1,8.58E2,1.1E1,4.6E1,2E0,2E0,2.3E1,3E1,1.6E1,2E0,1.42E2,2.341E3,4.242E3,3.519E3,7.922E3,4.677E3,6E0,6.795E3,2.436E3,1.73E2,8.3E1,1.577E3,8.9E1,6E0,6E0,8.52E2,4E0,7E0,3E0,4.3E1,1.9E1,4E0,1E1,2E1,1E0,1.5E1,5.8E1,8.4E1,1.628E3,7.13E2,2.716E3,1.526E3,6.14E2,2.905E3,1.05E3,6.872E3,1.631E3,3.046E3,1E0,5E0,4.063E3,2.732E3,1.451E3,9.85E2,2E0,1.71E2,5E0,7.8E1,1.52E3,5.7E1,8.4E1,5E0,3E0,3E0,3E0,3E0,1E0,8.51E2,3E0,1E0,6E0,1E0,2.8E1,1.5E1,4E0,1.5E1,3E0,1E0,1E0,9E0,9E0,1.1E1,1E1,5E0],"tree_param":{"num_deleted":"0","num_feature":"30","num_nodes":"105","size_leaf_vector":"1"}},{"base_weights":[1.5278336E0,-3.9171116E0,1.2925258E3,-2.3977922E1,1.3569858E2,4.163116E2,1.8588629E3,-5.663966E1,-5.196996E-1,1.003939E2,2.8973053E2,1.112461E3,2.148998E2,2.1971406E3,6.5885675E2,-8.1266235E1,-4.2036423E1,-1.4217754E1,2.7008953E1,2.5084502E2,9.142192E1,6.8143945E2,2.3593733E2,3.137335E2,2.3276584E3,1.1179244E2,1.2953307E3,1.7442134E3,3.5884426E3,2.8189755E2,4.09897E2,-1.16291374E2,-7.392253E1,-1.9753887E1,-4.6133125E1,-2.136101E1,-4.4647603E0,1.2378123E3,2.6182213E1,1.6844475E3,1.5849489E2,7.5823975E1,1.2876454E2,1.7189873E3,3.7614612E2,2.014282E2,4.1731006E2,6.2634875E2,-6.1608444E1,2.965047E2,-1.1089753E1,4.64994E1,7.5307294E2,2.2805363E2,2.067167E2,1.3423601E3,4.2505913E3,4.122807E3,-1.013712E2,1.6465396E2,2.581453E2,-1.7114775E1,-1.0513391E1,-5.248823E0,-7.858725E0,-2.7527993E0,5.017019E-1,-5.5883775E0,-3.8615215E0,-2.1633804E0,2.9280542E1,2.5428913E0,-8.0376655E-1,5.045027E0,2.3998991E2,1.6858568E0,3.8839607E0,7.389718E0,3.2826648E2,1.0036296E1,1.6555736E2,5.866315E0,9.403705E0,1.1521549E1,4.174484E1,3.1673035E1,3.0924414E2,2.9419992E0,1.14060295E2,1.8532106E1,3.422966E1,3.5710445E1,1.4414775E2,-3.728801E-1,7.848254E1,-8.762083E0,2.1170545E0,5.8926735E1,-1.1855104E0,-6.0776772E0,1.0446484E2,2.8674255E1,2.328252E0,2.5250293E2,5.4858765E1,-3.1160452E1,5.0629083E2,1.4004303E2,5.479624E2,5.3513846E0,-2.0562063E1,-1.5297114E1,4.596661E1],"categories":[],"categories_nodes":[],"categories_segments":[],"categories_sizes":[],"default_left":[0,0,0,0,0,0,0,0,0,0,0,0,0,0,0,0,0,0,0,0,0,0,0,0,0,0,0,0,0,0,0,0,0,0,0,0,0,0,0,0,0,0,0,0,0,0,0,0,0,0,0,0,0,0,0,0,0,0,0,0,0,0,0,0,0,0,0,0,0,0,0,0,0,0,0,0,0,0,0,0,0,0,0,0,0,0,0,0,0,0,0,0,0,0,0,0,0,0,0,0,0,0,0,0,0,0,0,0,0,0,0,0,0],"id":5,"left_children":[1,3,5,7,9,11,13,15,17,19,21,23,25,27,29,31,33,35,37,39,41,43,45,47,49,51,53,55,57,-1,59,61,63,65,67,69,71,73,75,77,79,81,83,85,87,89,91,93,95,-1,-1,97,99,-1,101,103,105,107,109,-1,111,-1,-1,-1,-1,-1,-1,-1,-1,-1,-1,-1,-1,-1,-1,-1,-1,-1,-1,-1,-1,-1,-1,-1,-1,-1,-1,-1,-1,-1,-1,-1,-1,-1,-1,-1,-1,-1,-1,-1,-1,-1,-1,-1,-1,-1,-1,-1,-1,-1,-1,-1,-1],"loss_changes":[2.4603464E8,9.762246E7,7.217211E7,2.335026E7,2.378408E7,8.033351E6,3.468035E7,4.577872E6,6.689187E6,4.78788E6,1.7033288E7,1.1887424E7,5.090869E6,3.722141E7,1.0137622E7,1.210836E6,7.29271E5,8.2512075E5,5.867471E6,2.6211516E7,1.950222E6,3.0395336E7,4.416112E6,1.0946832E6,8.100636E6,1.8072332E6,3.818361E6,4.868221E7,3.1965616E7,0E0,3.3280158E6,4.83866E5,3.88002E5,2.3969934E5,4.93078E5,5.922595E5,5.352002E5,5.3979515E6,6.945545E5,3.0645196E7,1.6281974E7,7.3709E5,3.824128E6,4.1390776E7,2.0375728E7,1.31152E6,6.514376E6,5.0226712E5,1.2628018E4,0E0,0E0,1.3056348E6,1.0127835E6,0E0,3.733132E4,4.367547E7,2.7519728E7,4.4038224E7,5.9458797E4,0E0,1.644468E6,0E0,0E0,0E0,0E0,0E0,0E0,0E0,0E0,0E0,0E0,0E0,0E0,0E0,0E0,0E0,0E0,0E0,0E0,0E0,0E0,0E0,0E0,0E0,0E0,0E0,0E0,0E0,0E0,0E0,0E0,0E0,0E0,0E0,0E0,0E0,0E0,0E0,0E0,0E0,0E0,0E0,0E0,0E0,0E0,0E0,0E0,0E0,0E0,0E0,0E0,0E0,0E0],"parents":[2147483647,0,0,1,1,2,2,3,3,4,4,5,5,6,6,7,7,8,8,9,9,10,10,11,11,12,12,13,13,14,14,15,15,16,16,17,17,18,18,19,19,20,20,21,21,22,22,23,23,24,24,25,25,26,26,27,27,28,28,30,30,31,31,32,32,33,33,34,34,35,35,36,36,37,37,38,38,39,39,40,40,41,41,42,42,43,43,44,44,45,45,46,46,47,47,48,48,51,51,52,52,54,54,55,55,56,56,57,57,58,58,60,60],"right_children":[2,4,6,8,10,12,14,16,18,20,22,24,26,28,30,32,34,36,38,40,42,44,46,48,50,52,54,56,58,-1,60,62,64,66,68,70,72,74,76,78,80,82,84,86,88,90,92,94,96,-1,-1,98,100,-1,102,104,106,108,110,-1,112,-1,-1,-1,-1,-1,-1,-1,-1,-1,-1,-1,-1,-1,-1,-1,-1,-1,-1,-1,-1,-1,-1,-1,-1,-1,-1,-1,-1,-1,-1,-1,-1,-1,-1,-1,-1,-1,-1,-1,-1,-1,-1,-1,-1,-1,-1,-1,-1,-1,-1,-1,-1],"split_conditions":[1.0592916E3,1.77985E2,4.1339542E2,3.419E1,3.4957834E2,6.4835E1,2.9987918E2,-2.6409166E1,9.540833E1,1E1,2.7528082E2,-1.6158333E0,2.6773834E2,4E0,5.6439026E2,-7.875833E1,-7.0710677E-1,6.141E1,-1.6096666E1,-9.659258E-1,4.16325E2,-9.659258E-1,5.8204333E2,-3.9385E1,4.977E1,4.9E1,1.3501E2,3.924E2,1.1375325E3,2.8189755E2,-5.48E1,-1.698E2,-7.0710677E-1,5.044809E1,7.955E0,5.9942676E2,4.5145832E1,-1.050425E2,1.3312416E2,5E0,3.3483917E2,2.3028E2,1E0,3E1,1.8485167E2,9.659258E-1,1.0592916E3,-4.7753334E1,6.550083E1,2.965047E2,-1.1089753E1,8E0,1.0653917E2,2.2805363E2,2.0962083E2,9E0,1.4331583E2,3.526E1,3.4957834E2,1.6465396E2,1.12355E2,-1.7114775E1,-1.0513391E1,-5.248823E0,-7.858725E0,-2.7527993E0,5.017019E-1,-5.5883775E0,-3.8615215E0,-2.1633804E0,2.9280542E1,2.5428913E0,-8.0376655E-1,5.045027E0,2.3998991E2,1.6858568E0,3.8839607E0,7.389718E0,3.2826648E2,1.0036296E1,1.6555736E2,5.866315E0,9.403705E0,1.1521549E1,4.174484E1,3.1673035E1,3.0924414E2,2.9419992E0,1.14060295E2,1.8532106E1,3.422966E1,3.5710445E1,1.4414775E2,-3.728801E-1,7.848254E1,-8.762083E0,2.1170545E0,5.8926735E1,-1.1855104E0,-6.0776772E0,1.0446484E2,2.8674255E1,2.328252E0,2.5250293E2,5.4858765E1,-3.1160452E1,5.0629083E2,1.4004303E2,5.479624E2,5.3513846E0,-2.0562063E1,-1.5297114E1,4.596661E1],"split_indices":[0,0,10,0,0,1,3,0,0,20,1,6,7,16,9,0,25,0,8,25,14,25,0,6,3,20,1,6,11,0,4,0,25,11,0,11,1,2,0,20,0,0,25,20,2,25,7,1,4,0,0,20,1,0,1,29,4,4,1,0,7,0,0,0,0,0,0,0,0,0,0,0,0,0,0,0,0,0,0,0,0,0,0,0,0,0,0,0,0,0,0,0,0,0,0,0,0,0,0,0,0,0,0,0,0,0,0,0,0,0,0,0,0],"split_type":[0,0,0,0,0,0,0,0,0,0,0,0,0,0,0,0,0,0,0,0,0,0,0,0,0,0,0,0,0,0,0,0,0,0,0,0,0,0,0,0,0,0,0,0,0,0,0,0,0,0,0,0,0,0,0,0,0,0,0,0,0,0,0,0,0,0,0,0,0,0,0,0,0,0,0,0,0,0,0,0,0,0,0,0,0,0,0,0,0,0,0,0,0,0,0,0,0,0,0,0,0,0,0,0,0,0,0,0,0,0,0,0,0],"sum_hessian":[3.4999E4,3.4853E4,1.46E2,3.0475E4,4.378E3,5.8E1,8.8E1,1.2738E4,1.7737E4,3.563E3,8.15E2,1.2E1,4.6E1,6.8E1,2E1,4.74E3,7.998E3,1.1844E4,5.893E3,1.99E2,3.364E3,9.7E1,7.18E2,8E0,4E0,4.3E1,3E0,5.3E1,1.5E1,1E0,1.9E1,8.19E2,3.921E3,1.243E3,6.755E3,6.836E3,5.008E3,3E0,5.89E3,1.1E1,1.88E2,2.375E3,9.89E2,2.1E1,7.6E1,6.05E2,1.13E2,4E0,4E0,3E0,1E0,4E1,3E0,1E0,2E0,4.7E1,6E0,1.3E1,2E0,1E0,1.8E1,1.36E2,6.83E2,7.03E2,3.218E3,9.46E2,2.97E2,2.938E3,3.817E3,6.831E3,5E0,5.34E2,4.474E3,2E0,1E0,3.393E3,2.497E3,6E0,5E0,1.82E2,6E0,1.225E3,1.15E3,9.46E2,4.3E1,1.1E1,1E1,5.3E1,2.3E1,5.45E2,6E1,1.08E2,5E0,1E0,3E0,3E0,1E0,3E0,3.7E1,1E0,2E0,1E0,1E0,1.8E1,2.9E1,1E0,5E0,5E0,8E0,1E0,1E0,6E0,1.2E1],"tree_param":{"num_deleted":"0","num_feature":"30","num_nodes":"113","size_leaf_vector":"1"}},{"base_weights":[-1.0663303E-2,-4.4341273E0,1.1284924E3,-1.9381618E1,1.4108788E2,9.804606E2,4.172422E3,-4.1640804E1,1.3367978E1,9.647271E1,2.4626445E2,-1.0457197E2,1.2501322E3,6.123156E2,1.806027E2,-7.031419E1,-2.8334902E1,1.6781558E0,3.925572E1,9.105171E1,2.0969183E2,4.204844E2,1.9250587E2,8.830435E1,-2.8998602E2,2.2050835E3,9.079307E2,-2.6088307E0,2.9704239E1,-1.0684303E2,-6.455524E1,-4.1448E1,-2.297657E1,3.0913058E2,1.151433E0,2.8759638E1,5.0823433E1,7.980302E1,1.2116104E2,6.9046967E2,1.3257315E2,3.5330295E2,3.3192236E3,2.0141904E3,1.8480838E2,-1.0826652E2,6.068232E2,-3.4307584E2,-1.25789154E2,3.5583264E3,1.0523271E3,7.549485E2,3.0210586E3,-1.744795E1,-9.614302E0,-4.4289317E0,-6.887887E0,-1.422483E0,-4.4467607E0,-2.3161228E0,2.603446E1,5.503589E-1,2.2799043E2,-9.820302E-2,4.1587644E0,2.5403055E1,2.7766738E0,4.6287856E0,1.0967671E1,1.5741359E1,7.4905243E0,-4.351926E1,1.2380268E1,8.30462E0,2.8899738E2,9.517816E0,1.1852687E2,3.1016443E1,1.633948E2,5.601552E2,-6.9478717E0,2.978323E2,4.2912555E0,2.026317E2,1.7953873E1,-1.1696728E0,-3.618537E1,7.6071625E1,7.252193E0,-7.09332E0,-3.6542133E1,-3.1763966E0,-1.4132947E1,4.5965927E2,3.3262096E1,6.3594734E1,2.6446243E2,2.416322E2,6.2731586E1,3.456473E1,4.689417E2],"categories":[],"categories_nodes":[],"categories_segments":[],"categories_sizes":[],"default_left":[0,0,0,0,0,0,0,0,0,0,0,0,0,0,0,0,0,0,0,0,0,0,0,0,0,0,0,0,0,0,0,0,0,0,0,0,0,0,0,0,0,0,0,0,0,0,0,0,0,0,0,0,0,0,0,0,0,0,0,0,0,0,0,0,0,0,0,0,0,0,0,0,0,0,0,0,0,0,0,0,0,0,0,0,0,0,0,0,0,0,0,0,0,0,0,0,0,0,0,0,0],"id":6,"left_children":[1,3,5,7,9,11,13,15,17,19,21,23,25,-1,27,29,31,33,35,37,39,41,43,45,47,49,51,-1,-1,53,55,57,59,61,63,65,67,69,71,73,75,77,79,81,83,85,87,89,91,93,95,97,99,-1,-1,-1,-1,-1,-1,-1,-1,-1,-1,-1,-1,-1,-1,-1,-1,-1,-1,-1,-1,-1,-1,-1,-1,-1,-1,-1,-1,-1,-1,-1,-1,-1,-1,-1,-1,-1,-1,-1,-1,-1,-1,-1,-1,-1,-1,-1,-1],"loss_changes":[1.7387752E8,7.547307E7,5.718997E7,2.2937892E7,1.514228E7,3.8461776E7,4.5615384E7,7.145114E6,3.85323E6,1.374726E6,8.928908E6,9.912006E5,3.2310112E7,0E0,7.997752E4,1.242036E6,8.98213E5,1.4203319E6,4.79457E5,7.24932E5,3.727306E6,4.2838524E7,9.962058E6,1.4927081E6,7.8838375E4,3.837391E7,2.3257296E7,0E0,0E0,5.67233E5,4.4653E5,3.044175E5,4.81412E5,8.962926E6,7.5567644E5,4.5793162E5,4.975445E5,5.89534E5,9.18022E5,1.8464124E7,3.4299595E6,1.175743E7,3.9060384E7,5.573609E6,6.768496E6,2.6510756E5,2.7364912E5,3.48475E4,2.799414E3,3.866029E7,8.925838E6,1.4387308E7,2.0696336E7,0E0,0E0,0E0,0E0,0E0,0E0,0E0,0E0,0E0,0E0,0E0,0E0,0E0,0E0,0E0,0E0,0E0,0E0,0E0,0E0,0E0,0E0,0E0,0E0,0E0,0E0,0E0,0E0,0E0,0E0,0E0,0E0,0E0,0E0,0E0,0E0,0E0,0E0,0E0,0E0,0E0,0E0,0E0,0E0,0E0,0E0,0E0,0E0],"parents":[2147483647,0,0,1,1,2,2,3,3,4,4,5,5,6,6,7,7,8,8,9,9,10,10,11,11,12,12,14,14,15,15,16,16,17,17,18,18,19,19,20,20,21,21,22,22,23,23,24,24,25,25,26,26,29,29,30,30,31,31,32,32,33,33,34,34,35,35,36,36,37,37,38,38,39,39,40,40,41,41,42,42,43,43,44,44,45,45,46,46,47,47,48,48,49,49,50,50,51,51,52,52],"right_children":[2,4,6,8,10,12,14,16,18,20,22,24,26,-1,28,30,32,34,36,38,40,42,44,46,48,50,52,-1,-1,54,56,58,60,62,64,66,68,70,72,74,76,78,80,82,84,86,88,90,92,94,96,98,100,-1,-1,-1,-1,-1,-1,-1,-1,-1,-1,-1,-1,-1,-1,-1,-1,-1,-1,-1,-1,-1,-1,-1,-1,-1,-1,-1,-1,-1,-1,-1,-1,-1,-1,-1,-1,-1,-1,-1,-1,-1,-1,-1,-1,-1,-1,-1,-1],"split_conditions":[1.0592916E3,2.0962083E2,5.8204333E2,5.8425E1,3.3483917E2,4.822E1,3.2120584E2,-1.0915E1,1.2733417E2,4.2347833E2,-8.660254E-1,2.5991666E2,3.6745834E1,6.123156E2,-3.815917E1,-7.875833E1,1.77025E1,-1.6096666E1,1.3139667E2,2.8269E2,1.589225E2,3.9E1,3.3852E2,-1.2545E1,1.2768115E3,1.0259333E2,1.0592916E3,-2.6088307E0,2.9704239E1,-3.0530167E2,-7.0710677E-1,-1.9229445E1,5.6439026E2,-1.7608334E1,2.0972667E2,-1.050425E2,1.4751992E3,-2.322E1,-2.9891388E1,1.440825E2,1E0,1.0592916E3,6.480666E1,7.763167E1,-1.2502917E2,-8.915E0,1.27335E2,-5.4736668E1,-5.80825E1,-7.0710677E-1,3.3483917E2,6.2E1,1.4095166E2,-1.744795E1,-9.614302E0,-4.4289317E0,-6.887887E0,-1.422483E0,-4.4467607E0,-2.3161228E0,2.603446E1,5.503589E-1,2.2799043E2,-9.820302E-2,4.1587644E0,2.5403055E1,2.7766738E0,4.6287856E0,1.0967671E1,1.5741359E1,7.4905243E0,-4.351926E1,1.2380268E1,8.30462E0,2.8899738E2,9.517816E0,1.1852687E2,3.1016443E1,1.633948E2,5.601552E2,-6.9478717E0,2.978323E2,4.2912555E0,2.026317E2,1.7953873E1,-1.1696728E0,-3.618537E1,7.6071625E1,7.252193E0,-7.09332E0,-3.6542133E1,-3.1763966E0,-1.4132947E1,4.5965927E2,3.3262096E1,6.3594734E1,2.6446243E2,2.416322E2,6.2731586E1,3.456473E1,4.689417E2],"split_indices":[0,0,6,0,0,5,5,0,0,5,25,10,3,0,3,0,0,8,5,0,8,20,14,5,9,6,5,0,0,13,25,8,9,8,5,5,14,6,9,8,25,7,6,3,5,6,3,7,5,25,7,5,3,0,0,0,0,0,0,0,0,0,0,0,0,0,0,0,0,0,0,0,0,0,0,0,0,0,0,0,0,0,0,0,0,0,0,0,0,0,0,0,0,0,0,0,0,0,0,0,0],"split_type":[0,0,0,0,0,0,0,0,0,0,0,0,0,0,0,0,0,0,0,0,0,0,0,0,0,0,0,0,0,0,0,0,0,0,0,0,0,0,0,0,0,0,0,0,0,0,0,0,0,0,0,0,0,0,0,0,0,0,0,0,0,0,0,0,0,0,0,0,0,0,0,0,0,0,0,0,0,0,0,0,0,0,0,0,0,0,0,0,0,0,0,0,0,0,0,0,0,0,0,0,0],"sum_hessian":[3.483E4,3.4695E4,1.35E2,3.1464E4,3.231E3,1.3E2,5E0,1.8732E4,1.2732E4,2.27E3,9.61E2,2.6E1,1.04E2,3E0,2E0,5.936E3,1.2796E4,8.772E3,3.96E3,2.168E3,1.02E2,2.25E2,7.36E2,1.3E1,1.3E1,2.6E1,7.8E1,1E0,1E0,8.06E2,5.13E3,3.71E3,9.086E3,1.4E1,8.758E3,2.078E3,1.882E3,1.581E3,5.87E2,1.3E1,8.9E1,2.21E2,4E0,2E0,7.34E2,1E1,3E0,9E0,4E0,1.1E1,1.5E1,7.4E1,4E0,1.08E2,6.98E2,9.04E2,4.226E3,3.71E2,3.339E3,9.081E3,5E0,1.3E1,1E0,8.32E3,4.38E2,8E0,2.07E3,1.749E3,1.33E2,9.2E1,1.489E3,2E0,5.85E2,1.1E1,2E0,8.7E1,2E0,2.15E2,6E0,2E0,2E0,1E0,1E0,1E0,7.33E2,8E0,2E0,2E0,1E0,1E0,8E0,1E0,3E0,8E0,3E0,1.3E1,2E0,4E0,7E1,2E0,2E0],"tree_param":{"num_deleted":"0","num_feature":"30","num_nodes":"101","size_leaf_vector":"1"}},{"base_weights":[6.7906743E-1,-1.211172E1,1.8263861E2,-2.627597E1,3.1420229E1,1.4859047E2,7.064045E2,-4.9784027E1,-1.6226963E1,9.6046135E1,2.2470234E1,4.584442E2,1.3012994E2,3.9094678E2,2.8227817E3,-2.368152E1,-5.8439785E1,8.900393E0,-2.1763744E1,6.329562E1,3.1252304E2,1.003378E1,4.216251E1,5.364006E2,3.7286365E2,1.1206513E2,2.522254E2,1.8889787E2,1.9505419E3,4.114294E3,2.054919E2,-3.2150997E1,7.605638E0,-9.381604E1,-5.1900467E1,-2.177922E0,5.341323E1,-2.9655367E1,-1.2584045E1,6.094473E1,1.0283748E2,1.0939648E3,1.747047E2,8.8765E0,3.0263797E2,2.2964998E2,3.9782375E1,2.3658359E2,1.3877925E3,2.176259E2,9.2937935E1,1.1899707E3,2.3307404E2,1.5211082E3,1.2427477E2,3.1953972E3,2.4918698E2,6.940636E2,2.4009875E3,6.0300104E2,-2.4336522E2,-4.5354576E0,-1.8229483E0,-2.015696E0,2.1885188E0,-1.4823565E1,-8.713866E0,1.4248863E1,-5.280668E0,2.2795908E0,-9.005248E-1,3.264304E0,9.042922E0,-2.7080548E0,-5.3323836E0,2.5627506E0,-1.5367737E0,9.573759E0,2.0800421E0,3.0005224E1,5.2281146E2,5.9361315E0,4.80305E1,7.948397E-1,2.9289799E1,2.4421387E2,1.6279265E0,2.4119054E2,1.7883853E0,3.7860584E0,2.5216047E1,9.525085E1,1.361235E1,4.197335E2,5.6974915E1,3.3781277E1,7.7743964E0,9.000498E0,3.78663E1,-5.129664E0,3.0775702E2,9.787913E0,3.0868101E1,6.6830955E0,2.4683159E2,1.259484E2,6.74079E0,5.145163E1,4.0032547E2,-1.1803451E1,7.781938E1,2.9783383E2,2.5347359E1,9.2713104E1,-1.8464453E1,-4.0332003E0,-2.9756565E1],"categories":[],"categories_nodes":[],"categories_segments":[],"categories_sizes":[],"default_left":[0,0,0,0,0,0,0,0,0,0,0,0,0,0,0,0,0,0,0,0,0,0,0,0,0,0,0,0,0,0,0,0,0,0,0,0,0,0,0,0,0,0,0,0,0,0,0,0,0,0,0,0,0,0,0,0,0,0,0,0,0,0,0,0,0,0,0,0,0,0,0,0,0,0,0,0,0,0,0,0,0,0,0,0,0,0,0,0,0,0,0,0,0,0,0,0,0,0,0,0,0,0,0,0,0,0,0,0,0,0,0,0,0,0,0,0,0],"id":7,"left_children":[1,3,5,7,9,11,13,15,17,19,21,23,25,27,29,31,33,35,37,39,41,43,45,-1,47,49,51,53,55,57,59,61,63,65,67,69,71,73,75,77,-1,79,81,83,85,87,89,91,93,95,97,99,101,103,105,107,109,-1,111,113,115,-1,-1,-1,-1,-1,-1,-1,-1,-1,-1,-1,-1,-1,-1,-1,-1,-1,-1,-1,-1,-1,-1,-1,-1,-1,-1,-1,-1,-1,-1,-1,-1,-1,-1,-1,-1,-1,-1,-1,-1,-1,-1,-1,-1,-1,-1,-1,-1,-1,-1,-1,-1,-1,-1,-1,-1],"loss_changes":[8.143351E7,2.0158012E7,4.0875776E7,5.826098E6,4.64008E6,1.2289892E7,9.2363976E7,1.66738E6,2.404408E6,6.899759E6,1.726376E6,4.879768E7,4.46898E6,3.839041E7,5.999885E7,4.8808606E5,1.278108E6,1.5391715E6,1.0254835E6,1.8634232E6,1.3593971E7,1.4611582E6,1.2086395E6,0E0,1.6269256E7,3.569672E6,4.42779E6,9.280872E6,2.8854572E7,4.144336E7,1.395759E6,2.6551312E5,1.5624119E5,3.0102E5,8.32461E5,4.264651E5,4.7524762E5,4.62561E5,6.9689825E5,1.1824282E6,0E0,6.0791664E7,3.8488212E6,1.1329731E6,1.0375297E7,1.5668966E7,1.090789E6,7.565873E6,2.9784678E7,4.546552E6,1.228769E6,1.187325E7,2.606939E6,6.7223E6,6.757883E6,1.5265968E7,1.4517585E6,0E0,1.0403564E7,1.1924622E6,3.1982719E4,0E0,0E0,0E0,0E0,0E0,0E0,0E0,0E0,0E0,0E0,0E0,0E0,0E0,0E0,0E0,0E0,0E0,0E0,0E0,0E0,0E0,0E0,0E0,0E0,0E0,0E0,0E0,0E0,0E0,0E0,0E0,0E0,0E0,0E0,0E0,0E0,0E0,0E0,0E0,0E0,0E0,0E0,0E0,0E0,0E0,0E0,0E0,0E0,0E0,0E0,0E0,0E0,0E0,0E0,0E0,0E0],"parents":[2147483647,0,0,1,1,2,2,3,3,4,4,5,5,6,6,7,7,8,8,9,9,10,10,11,11,12,12,13,13,14,14,15,15,16,16,17,17,18,18,19,19,20,20,21,21,22,22,24,24,25,25,26,26,27,27,28,28,29,29,30,30,31,31,32,32,33,33,34,34,35,35,36,36,37,37,38,38,39,39,41,41,42,42,43,43,44,44,45,45,46,46,47,47,48,48,49,49,50,50,51,51,52,52,53,53,54,54,55,55,56,56,58,58,59,59,60,60],"right_children":[2,4,6,8,10,12,14,16,18,20,22,24,26,28,30,32,34,36,38,40,42,44,46,-1,48,50,52,54,56,58,60,62,64,66,68,70,72,74,76,78,-1,80,82,84,86,88,90,92,94,96,98,100,102,104,106,108,110,-1,112,114,116,-1,-1,-1,-1,-1,-1,-1,-1,-1,-1,-1,-1,-1,-1,-1,-1,-1,-1,-1,-1,-1,-1,-1,-1,-1,-1,-1,-1,-1,-1,-1,-1,-1,-1,-1,-1,-1,-1,-1,-1,-1,-1,-1,-1,-1,-1,-1,-1,-1,-1,-1,-1,-1,-1,-1,-1],"split_conditions":[2.4923723E2,9.557833E1,1.2350494E3,4.847778E0,-8.660254E-1,-9.659258E-1,8.660254E-1,-7.0710677E-1,-7.0710677E-1,1.21547005E2,1.5618083E2,-2.1205083E2,4.2347833E2,6.9E1,3.5E1,1.0954583E2,-6.3495277E1,7.366646E1,4.9415E1,2.8573672E2,1.3036534E2,7.481781E2,3E0,5.364006E2,2.8E1,2.4168E2,3E0,-5.0486668E1,6.4825E1,3.924E2,1E1,-3.7691666E1,2.9485209E1,-1.44105E2,-9.360667E1,-9.659258E-1,1.5248666E2,5.9683334E1,4.469E1,1.9E1,1.0283748E2,3.9E1,2.53747E3,1.0592916E3,8.95325E1,1E0,1.0592916E3,2.1975583E2,1.4095166E2,2.5881904E-1,3.1E1,4.2347833E2,3.924E2,4.562E1,-9.659258E-1,5.484E1,5.421583E1,6.940636E2,3.4957834E2,2.2502083E2,5.4775E1,-4.5354576E0,-1.8229483E0,-2.015696E0,2.1885188E0,-1.4823565E1,-8.713866E0,1.4248863E1,-5.280668E0,2.2795908E0,-9.005248E-1,3.264304E0,9.042922E0,-2.7080548E0,-5.3323836E0,2.5627506E0,-1.5367737E0,9.573759E0,2.0800421E0,3.0005224E1,5.2281146E2,5.9361315E0,4.80305E1,7.948397E-1,2.9289799E1,2.4421387E2,1.6279265E0,2.4119054E2,1.7883853E0,3.7860584E0,2.5216047E1,9.525085E1,1.361235E1,4.197335E2,5.6974915E1,3.3781277E1,7.7743964E0,9.000498E0,3.78663E1,-5.129664E0,3.0775702E2,9.787913E0,3.0868101E1,6.6830955E0,2.4683159E2,1.259484E2,6.74079E0,5.145163E1,4.0032547E2,-1.1803451E1,7.781938E1,2.9783383E2,2.5347359E1,9.2713104E1,-1.8464453E1,-4.0332003E0,-2.9756565E1],"split_indices":[8,8,8,8,25,25,25,25,25,12,8,13,5,29,20,5,8,11,8,11,12,11,20,0,17,2,18,3,3,1,18,8,11,8,2,25,6,2,2,15,0,20,14,6,2,16,4,1,5,26,17,1,4,4,25,5,4,0,4,2,1,0,0,0,0,0,0,0,0,0,0,0,0,0,0,0,0,0,0,0,0,0,0,0,0,0,0,0,0,0,0,0,0,0,0,0,0,0,0,0,0,0,0,0,0,0,0,0,0,0,0,0,0,0,0,0,0],"split_type":[0,0,0,0,0,0,0,0,0,0,0,0,0,0,0,0,0,0,0,0,0,0,0,0,0,0,0,0,0,0,0,0,0,0,0,0,0,0,0,0,0,0,0,0,0,0,0,0,0,0,0,0,0,0,0,0,0,0,0,0,0,0,0,0,0,0,0,0,0,0,0,0,0,0,0,0,0,0,0,0,0,0,0,0,0,0,0,0,0,0,0,0,0,0,0,0,0,0,0,0,0,0,0,0,0,0,0,0,0,0,0,0,0,0,0,0,0],"sum_hessian":[3.4987E4,3.269E4,2.297E3,2.4665E4,8.025E3,2.158E3,1.39E2,7.385E3,1.728E4,9.75E2,7.05E3,1.2E2,2.038E3,1.22E2,1.7E1,1.84E3,5.545E3,3.12E3,1.416E4,8.48E2,1.27E2,4.322E3,2.728E3,1E0,1.19E2,1.777E3,2.61E2,1.09E2,1.3E1,1.1E1,6E0,1.448E3,3.92E2,8.63E2,4.682E3,2.499E3,6.21E2,7.613E3,6.547E3,8.47E2,1E0,1.8E1,1.09E2,4.306E3,1.6E1,3.3E1,2.695E3,1.06E2,1.3E1,2.71E2,1.506E3,4E0,2.57E2,4E0,1.05E2,7E0,6E0,3E0,8E0,3E0,3E0,7.42E2,7.06E2,1.33E2,2.59E2,9.2E1,7.71E2,2.1E1,4.661E3,5.36E2,1.963E3,3.99E2,2.22E2,6.868E3,7.45E2,4.44E2,6.103E3,4.53E2,3.94E2,1.6E1,2E0,8E1,2.9E1,4.293E3,1.3E1,1E0,1.5E1,2E0,3.1E1,2.672E3,2.3E1,1.2E1,9.4E1,2E0,1.1E1,1.45E2,1.26E2,1.492E3,1.4E1,3E0,1E0,9.3E1,1.64E2,2E0,2E0,4E0,1.01E2,2E0,5E0,4E0,2E0,6E0,2E0,2E0,1E0,1E0,2E0],"tree_param":{"num_deleted":"0","num_feature":"30","num_nodes":"117","size_leaf_vector":"1"}},{"base_weights":[3.0261207E-1,-1.0768719E1,2.2942136E2,-2.8307413E1,3.0873232E1,1.8402147E2,8.8594916E2,-5.1946793E1,-1.639732E1,1.6948431E1,6.2880184E1,4.4916412E2,1.567922E2,6.199827E2,2.3100093E3,-7.145451E1,-4.3267136E1,-2.4245197E1,-9.832404E0,5.760969E2,1.6377466E1,8.56843E1,4.3495815E1,1.7645742E3,2.022037E2,1.2926396E2,2.566685E2,4.0701556E2,3.0565818E3,3.0872388E3,5.0007025E2,4.5594315E2,-7.2297806E1,-3.1131807E1,-4.923642E1,-1.7469423E0,-2.6643557E1,7.746954E0,-1.2192687E1,2.1587846E2,-4.7465157E1,1.3187803E1,4.624134E1,4.657757E1,1.3084744E2,1.5541834E1,4.9366997E1,7.0880133E2,2.9606116E3,1.26720276E2,6.80202E2,1.2534092E2,1.4905927E3,-1.4123076E1,3.332584E2,-1.0132947E2,7.12018E2,4.2266313E3,8.760535E1,4.802152E2,3.613209E3,-9.414835E0,8.2074165E1,1.06239944E2,-1.0030878E1,-1.3132779E1,-6.8884897E0,-3.5201375E0,-5.3136504E-1,2.3206594E0,-5.0086646E0,-1.679285E0,2.207251E0,-2.412421E0,-3.7879598E0,1.7455724E0,-1.0133256E0,-1.2763587E0,4.371181E0,-2.4243599E1,3.999621E0,5.02342E-1,2.0499856E0,3.996014E0,3.1533728E1,4.1191554E0,4.788558E1,9.991905E0,3.3088726E1,1.8244356E0,-1.1224868E1,4.402073E0,6.744138E0,-1.0329468E1,3.450253E2,5.2325665E2,1.2393929E2,9.878858E1,8.23938E0,1.3666202E2,-5.514215E-1,6.712948E1,1.1592502E1,3.4192274E0,2.2016467E2,-7.432805E0,1.9552237E1,1.281193E2,2.843464E1,2.1268332E1,-2.5373453E1,1.3365872E2,2.0944435E1,-6.0555256E1,5.586091E2,-8.7758045E0,2.1921606E1,1.2628764E1,5.9398518E1,-1.0975644E1,4.0923117E2],"categories":[],"categories_nodes":[],"categories_segments":[],"categories_sizes":[],"default_left":[0,0,0,0,0,0,0,0,0,0,0,0,0,0,0,0,0,0,0,0,0,0,0,0,0,0,0,0,0,0,0,0,0,0,0,0,0,0,0,0,0,0,0,0,0,0,0,0,0,0,0,0,0,0,0,0,0,0,0,0,0,0,0,0,0,0,0,0,0,0,0,0,0,0,0,0,0,0,0,0,0,0,0,0,0,0,0,0,0,0,0,0,0,0,0,0,0,0,0,0,0,0,0,0,0,0,0,0,0,0,0,0,0,0,0,0,0,0,0,0,0],"id":8,"left_children":[1,3,5,7,9,11,13,15,17,19,21,23,25,27,29,31,33,35,37,39,41,43,45,47,49,51,53,55,57,59,61,63,65,67,69,71,73,75,77,-1,79,81,83,85,87,89,91,93,95,97,99,101,103,105,107,109,111,113,115,117,119,-1,-1,-1,-1,-1,-1,-1,-1,-1,-1,-1,-1,-1,-1,-1,-1,-1,-1,-1,-1,-1,-1,-1,-1,-1,-1,-1,-1,-1,-1,-1,-1,-1,-1,-1,-1,-1,-1,-1,-1,-1,-1,-1,-1,-1,-1,-1,-1,-1,-1,-1,-1,-1,-1,-1,-1,-1,-1,-1,-1],"loss_changes":[8.871166E7,2.43652E7,4.7884584E7,6.60818E6,4.405468E6,1.0823948E7,3.795777E7,1.32843E6,8.04047E5,2.190483E6,1.321064E6,4.512259E7,3.733484E6,4.4939064E7,2.0963616E7,1.109221E6,3.92891E5,3.8359825E5,3.52862E5,7.011007E6,6.5521975E5,2.424156E6,2.654335E5,2.5681512E7,4.2073575E6,5.559444E6,6.123008E6,1.2941067E7,2.3946244E7,1.3347856E7,1.2206375E6,1.4560341E6,4.77872E5,1.8872238E5,2.25856E5,2.4622245E5,1.809555E5,1.7498766E5,2.3979638E5,0E0,1.1203126E5,3.71338E5,1.1096869E6,1.7008069E6,3.914145E6,9.9774445E4,1.2650475E5,2.9298912E7,3.2619456E7,3.888431E6,7.538681E6,5.443158E6,3.031235E6,8.4755275E5,1.0299574E7,1.5853975E6,1.6042288E7,3.6228944E7,8.849022E4,4.5713938E4,1.6502704E7,0E0,0E0,0E0,0E0,0E0,0E0,0E0,0E0,0E0,0E0,0E0,0E0,0E0,0E0,0E0,0E0,0E0,0E0,0E0,0E0,0E0,0E0,0E0,0E0,0E0,0E0,0E0,0E0,0E0,0E0,0E0,0E0,0E0,0E0,0E0,0E0,0E0,0E0,0E0,0E0,0E0,0E0,0E0,0E0,0E0,0E0,0E0,0E0,0E0,0E0,0E0,0E0,0E0,0E0,0E0,0E0,0E0,0E0,0E0,0E0],"parents":[2147483647,0,0,1,1,2,2,3,3,4,4,5,5,6,6,7,7,8,8,9,9,10,10,11,11,12,12,13,13,14,14,15,15,16,16,17,17,18,18,19,19,20,20,21,21,22,22,23,23,24,24,25,25,26,26,27,27,28,28,29,29,30,30,31,31,32,32,33,33,34,34,35,35,36,36,37,37,38,38,40,40,41,41,42,42,43,43,44,44,45,45,46,46,47,47,48,48,49,49,50,50,51,51,52,52,53,53,54,54,55,55,56,56,57,57,58,58,59,59,60,60],"right_children":[2,4,6,8,10,12,14,16,18,20,22,24,26,28,30,32,34,36,38,40,42,44,46,48,50,52,54,56,58,60,62,64,66,68,70,72,74,76,78,-1,80,82,84,86,88,90,92,94,96,98,100,102,104,106,108,110,112,114,116,118,120,-1,-1,-1,-1,-1,-1,-1,-1,-1,-1,-1,-1,-1,-1,-1,-1,-1,-1,-1,-1,-1,-1,-1,-1,-1,-1,-1,-1,-1,-1,-1,-1,-1,-1,-1,-1,-1,-1,-1,-1,-1,-1,-1,-1,-1,-1,-1,-1,-1,-1,-1,-1,-1,-1,-1,-1,-1,-1,-1,-1],"split_conditions":[2.9275168E2,8.61725E1,1.2350494E3,6.5241666E0,1.74875E2,-9.659258E-1,7.5E1,-4.9030834E1,4.259E1,-1.6096666E1,2.5881904E-1,1.3303416E2,4.7860834E2,5.8204333E2,1.1375325E3,1.1288937E1,-2.5881904E-1,-5.0916666E-1,-8.660254E-1,3.0425E1,2.0972667E2,-2.5881904E-1,1.3147E2,9.0479164E1,4.659432E2,5.1E1,2.5991666E2,4.6466727E2,3.2120584E2,5.484E1,5.421583E1,-7.3674164E1,-1.698E2,1.3501E2,-6.89175E1,6.558724E1,5.66E1,1.9E1,3.0814667E2,2.1587846E2,-6.89175E1,1.15684166E2,1.6219849E3,4.9E1,5.6811914E2,3.3483917E2,2.534125E2,3.6E1,1.4095166E2,8.632437E1,5.158618E2,6E0,2.9987918E2,3.0826764E2,3.8013E2,1.1E1,1.0592916E3,1.4331583E2,2.3028E2,9.265833E0,-3.6835E1,-9.414835E0,8.2074165E1,1.06239944E2,-1.0030878E1,-1.3132779E1,-6.8884897E0,-3.5201375E0,-5.3136504E-1,2.3206594E0,-5.0086646E0,-1.679285E0,2.207251E0,-2.412421E0,-3.7879598E0,1.7455724E0,-1.0133256E0,-1.2763587E0,4.371181E0,-2.4243599E1,3.999621E0,5.02342E-1,2.0499856E0,3.996014E0,3.1533728E1,4.1191554E0,4.788558E1,9.991905E0,3.3088726E1,1.8244356E0,-1.1224868E1,4.402073E0,6.744138E0,-1.0329468E1,3.450253E2,5.2325665E2,1.2393929E2,9.878858E1,8.23938E0,1.3666202E2,-5.514215E-1,6.712948E1,1.1592502E1,3.4192274E0,2.2016467E2,-7.432805E0,1.9552237E1,1.281193E2,2.843464E1,2.1268332E1,-2.5373453E1,1.3365872E2,2.0944435E1,-6.0555256E1,5.586091E2,-8.7758045E0,2.1921606E1,1.2628764E1,5.9398518E1,-1.0975644E1,4.0923117E2],"split_indices":[0,0,8,0,0,25,29,0,0,8,26,6,0,6,11,12,25,1,25,5,5,26,2,6,12,20,10,11,5,5,4,0,0,6,2,12,2,15,7,0,1,0,12,20,14,1,0,20,5,11,10,20,0,12,8,15,2,4,1,4,4,0,0,0,0,0,0,0,0,0,0,0,0,0,0,0,0,0,0,0,0,0,0,0,0,0,0,0,0,0,0,0,0,0,0,0,0,0,0,0,0,0,0,0,0,0,0,0,0,0,0,0,0,0,0,0,0,0,0,0,0],"split_type":[0,0,0,0,0,0,0,0,0,0,0,0,0,0,0,0,0,0,0,0,0,0,0,0,0,0,0,0,0,0,0,0,0,0,0,0,0,0,0,0,0,0,0,0,0,0,0,0,0,0,0,0,0,0,0,0,0,0,0,0,0,0,0,0,0,0,0,0,0,0,0,0,0,0,0,0,0,0,0,0,0,0,0,0,0,0,0,0,0,0,0,0,0,0,0,0,0,0,0,0,0,0,0,0,0,0,0,0,0,0,0,0,0,0,0,0,0,0,0,0,0],"sum_hessian":[3.497E4,3.3359E4,1.611E3,2.3473E4,9.886E3,1.508E3,1.03E2,7.863E3,1.561E4,6.89E3,2.996E3,1.39E2,1.369E3,8.8E1,1.5E1,2.419E3,5.444E3,7.109E3,8.501E3,6E0,6.884E3,1.375E3,1.621E3,2.1E1,1.18E2,1.075E3,2.94E2,8.2E1,6E0,1E1,5E0,3E0,2.416E3,1.797E3,3.647E3,6.85E2,6.424E3,1.006E3,7.495E3,1E0,5E0,6.221E3,6.63E2,7.38E2,6.37E2,2.82E2,1.339E3,1.2E1,9E0,1.03E2,1.5E1,1.073E3,2E0,6.5E1,2.29E2,3.1E1,5.1E1,4E0,2E0,2E0,8E0,2E0,3E0,1E0,2E0,1.3E2,2.286E3,1.552E3,2.45E2,4.2E1,3.605E3,4.2E2,2.65E2,5.25E3,1.174E3,6.52E2,3.54E2,7.42E3,7.5E1,1E0,4E0,2.94E3,3.281E3,6.49E2,1.4E1,7.3E2,8E0,5.53E2,8.4E1,2.77E2,5E0,1.036E3,3.03E2,1E1,2E0,3E0,6E0,4E0,9.9E1,7E0,8E0,1.7E1,1.056E3,1E0,1E0,5.1E1,1.4E1,1E1,2.19E2,1E1,2.1E1,2.2E1,2.9E1,1E0,3E0,1E0,1E0,1E0,1E0,1E0,7E0],"tree_param":{"num_deleted":"0","num_feature":"30","num_nodes":"121","size_leaf_vector":"1"}},{"base_weights":[1.0596449E0,-4.367803E0,3.4422424E2,-1.7596365E1,5.297236E1,2.5436038E2,1.0025369E3,-3.4210217E1,-5.9790287E0,1.8058234E2,4.706355E1,2.2131306E2,1.7854434E3,4.059577E2,2.537713E3,-4.3801274E0,-3.889435E1,-1.2714707E1,1.2197116E1,1.6375209E2,2.480136E2,2.2624344E1,7.499588E1,6.648513E2,1.8746756E2,1.1797864E2,2.4832026E3,1.8237782E2,1.9406038E3,4.6576132E2,4.148688E3,-1.0501464E1,2.3441547E1,-6.941015E1,-3.436781E1,-1.7893639E1,-6.543598E0,1.1127879E1,2.6085095E2,1.3811688E2,1.3284805E3,2.1507996E1,5.4294446E2,5.905135E1,1.8521475E2,9.66512E1,1.6511389E3,1.3624625E2,4.7487976E2,3.5172356E1,-7.7144165E0,3.2605405E2,3.5987177E2,6.743151E2,1.2869085E1,-8.64699E0,2.3633325E2,1.00276654E3,-1.6437614E2,6.347941E2,2.2992878E3,-2.3782773E0,-5.712762E-2,2.0033191E-1,6.769329E0,2.9710342E1,-7.0788774E0,-4.2606053E0,-2.7725027E0,-1.8069886E0,5.659225E1,2.261809E0,-8.2733345E-1,2.6616397E0,-1.6773574E-1,1.531199E2,2.1321857E0,1.3391154E2,1.1577794E1,1.5726637E2,5.373223E0,-1.3284999E1,2.2637808E0,-8.1582224E-1,1.9248303E2,1.1738851E1,4.543895E0,6.320335E1,1.3256312E1,2.1250298E1,-1.3263976E1,2.716316E2,1.3322588E1,1.0117438E2,1.1922225E1,1.6937353E1,1.835535E2,6.0342587E1,-6.3568196E0,2.6170096E2,2.1833475E1,-2.747614E1,1.90318E1,1.3049661E2,-1.0296581E1,-2.1059734E1,-6.332956E0,4.0582134E1,2.5472122E2],"categories":[],"categories_nodes":[],"categories_segments":[],"categories_sizes":[],"default_left":[0,0,0,0,0,0,0,0,0,0,0,0,0,0,0,0,0,0,0,0,0,0,0,0,0,0,0,0,0,0,0,0,0,0,0,0,0,0,0,0,0,0,0,0,0,0,0,0,0,0,0,0,0,0,0,0,0,0,0,0,0,0,0,0,0,0,0,0,0,0,0,0,0,0,0,0,0,0,0,0,0,0,0,0,0,0,0,0,0,0,0,0,0,0,0,0,0,0,0,0,0,0,0,0,0,0,0,0,0],"id":9,"left_children":[1,3,5,7,9,11,13,15,17,19,21,23,25,27,29,31,33,35,37,39,-1,41,43,45,47,49,51,53,55,57,59,61,63,65,67,69,71,73,75,77,79,81,83,85,87,89,91,93,95,-1,-1,-1,97,99,101,-1,-1,103,105,-1,107,-1,-1,-1,-1,-1,-1,-1,-1,-1,-1,-1,-1,-1,-1,-1,-1,-1,-1,-1,-1,-1,-1,-1,-1,-1,-1,-1,-1,-1,-1,-1,-1,-1,-1,-1,-1,-1,-1,-1,-1,-1,-1,-1,-1,-1,-1,-1,-1],"loss_changes":[6.50757E7,2.6091256E7,3.1927104E7,5.394191E6,4.853422E6,2.389179E7,5.8500024E7,1.606839E6,2.0139842E6,1.0623695E7,4.20611E6,6.945822E6,1.1341668E7,1.611543E7,5.814876E7,2.662626E5,1.370627E6,3.834615E5,1.1796594E6,8.296055E6,0E0,1.8987065E6,5.043286E6,1.8333728E7,6.398035E6,2.0959669E5,1.038008E7,3.576923E6,5.345996E6,3.2103985E6,2.6076384E7,1.6892977E5,2.6738488E5,6.692875E5,4.72618E5,6.8156825E5,2.7650712E5,8.7866725E5,5.748618E6,7.3301175E6,1.782966E6,5.755364E5,5.3468225E6,1.991039E6,8.455977E6,6.125971E5,1.9039986E7,5.453533E6,2.712436E7,0E0,0E0,0E0,3.4780422E5,9.172469E6,1.736594E6,0E0,0E0,1.8052465E6,9.988047E3,0E0,2.25204E6,0E0,0E0,0E0,0E0,0E0,0E0,0E0,0E0,0E0,0E0,0E0,0E0,0E0,0E0,0E0,0E0,0E0,0E0,0E0,0E0,0E0,0E0,0E0,0E0,0E0,0E0,0E0,0E0,0E0,0E0,0E0,0E0,0E0,0E0,0E0,0E0,0E0,0E0,0E0,0E0,0E0,0E0,0E0,0E0,0E0,0E0,0E0,0E0],"parents":[2147483647,0,0,1,1,2,2,3,3,4,4,5,5,6,6,7,7,8,8,9,9,10,10,11,11,12,12,13,13,14,14,15,15,16,16,17,17,18,18,19,19,21,21,22,22,23,23,24,24,25,25,26,26,27,27,28,28,29,29,30,30,31,31,32,32,33,33,34,34,35,35,36,36,37,37,38,38,39,39,40,40,41,41,42,42,43,43,44,44,45,45,46,46,47,47,48,48,52,52,53,53,54,54,57,57,58,58,60,60],"right_children":[2,4,6,8,10,12,14,16,18,20,22,24,26,28,30,32,34,36,38,40,-1,42,44,46,48,50,52,54,56,58,60,62,64,66,68,70,72,74,76,78,80,82,84,86,88,90,92,94,96,-1,-1,-1,98,100,102,-1,-1,104,106,-1,108,-1,-1,-1,-1,-1,-1,-1,-1,-1,-1,-1,-1,-1,-1,-1,-1,-1,-1,-1,-1,-1,-1,-1,-1,-1,-1,-1,-1,-1,-1,-1,-1,-1,-1,-1,-1,-1,-1,-1,-1,-1,-1,-1,-1,-1,-1,-1,-1],"split_conditions":[4.60655E2,1.31835E2,8.660254E-1,3.0188889E1,-9.659258E-1,1.0592916E3,1.2350494E3,-8.660254E-1,8.7285E1,4.2347833E2,1.6067117E2,-9.659258E-1,1.45665E2,2.6E1,-7.070417E1,1.7162167E2,-5.8575554E1,5.993833E1,7.481781E2,1.0390061E3,2.480136E2,4.7860834E2,9.659258E-1,4.1906067E2,7E1,5.349097E2,2.8269E2,9E0,-6.135E0,2.3623917E2,3.924E2,-2.7171667E1,8.92059E1,1.1288937E1,5.755E0,1.4095166E2,-8.660254E-1,2.5881904E-1,2E0,1.0014E2,2.8269E2,3.2145E1,1.86925E1,-7.0710677E-1,-4.5764168E1,2.3846799E2,1.0390061E3,2.7860333E2,1.2350494E3,3.5172356E1,-7.7144165E0,3.2605405E2,5.8204333E2,3.924E2,3.2120584E2,-8.64699E0,2.3633325E2,2.534125E2,2.9275168E2,6.347941E2,4.7860834E2,-2.3782773E0,-5.712762E-2,2.0033191E-1,6.769329E0,2.9710342E1,-7.0788774E0,-4.2606053E0,-2.7725027E0,-1.8069886E0,5.659225E1,2.261809E0,-8.2733345E-1,2.6616397E0,-1.6773574E-1,1.531199E2,2.1321857E0,1.3391154E2,1.1577794E1,1.5726637E2,5.373223E0,-1.3284999E1,2.2637808E0,-8.1582224E-1,1.9248303E2,1.1738851E1,4.543895E0,6.320335E1,1.3256312E1,2.1250298E1,-1.3263976E1,2.716316E2,1.3322588E1,1.0117438E2,1.1922225E1,1.6937353E1,1.835535E2,6.0342587E1,-6.3568196E0,2.6170096E2,2.1833475E1,-2.747614E1,1.90318E1,1.3049661E2,-1.0296581E1,-2.1059734E1,-6.332956E0,4.0582134E1,2.5472122E2],"split_indices":[8,8,25,8,25,7,8,25,5,3,11,25,6,17,13,7,8,8,11,12,0,3,25,12,29,8,3,17,4,2,1,8,12,12,5,1,25,26,18,1,1,1,4,25,13,12,12,9,8,0,0,0,1,1,3,0,0,3,2,0,1,0,0,0,0,0,0,0,0,0,0,0,0,0,0,0,0,0,0,0,0,0,0,0,0,0,0,0,0,0,0,0,0,0,0,0,0,0,0,0,0,0,0,0,0,0,0,0,0],"split_type":[0,0,0,0,0,0,0,0,0,0,0,0,0,0,0,0,0,0,0,0,0,0,0,0,0,0,0,0,0,0,0,0,0,0,0,0,0,0,0,0,0,0,0,0,0,0,0,0,0,0,0,0,0,0,0,0,0,0,0,0,0,0,0,0,0,0,0,0,0,0,0,0,0,0,0,0,0,0,0,0,0,0,0,0,0,0,0,0,0,0,0,0,0,0,0,0,0,0,0,0,0,0,0,0,0,0,0,0,0],"sum_hessian":[3.4938E4,3.4395E4,5.43E2,2.7948E4,6.447E3,4.79E2,6.4E1,1.15E4,1.6448E4,2.84E2,6.163E3,4.7E2,9E0,4.7E1,1.7E1,1.561E3,9.939E3,1.2001E4,4.447E3,2.83E2,1E0,3.288E3,2.875E3,3.2E1,4.38E2,3E0,6E0,4.2E1,5E0,8E0,9E0,1.28E3,2.81E2,1.282E3,8.657E3,6.524E3,5.477E3,4.429E3,1.8E1,2.78E2,5E0,3.282E3,6E0,2.513E3,3.62E2,2.1E1,1.1E1,3.73E2,6.5E1,1E0,2E0,4E0,2E0,1E1,3.2E1,1E0,4E0,4E0,4E0,3E0,6E0,5.47E2,7.33E2,1.9E2,9.1E1,4E0,1.278E3,3.862E3,4.795E3,6.523E3,1E0,3.06E2,5.171E3,2.004E3,2.425E3,2E0,1.6E1,4E0,2.74E2,4E0,1E0,2.3E1,3.259E3,5E0,1E0,4.74E2,2.039E3,3.7E1,3.25E2,1.4E1,7E0,6E0,5E0,6E0,3.67E2,5.4E1,1.1E1,1E0,1E0,1E0,9E0,1.2E1,2E1,3E0,1E0,2E0,2E0,1E0,5E0],"tree_param":{"num_deleted":"0","num_feature":"30","num_nodes":"109","size_leaf_vector":"1"}},{"base_weights":[6.0719705E-1,-2.6523757E0,8.283922E2,-1.6223713E1,7.190434E1,3.2348706E2,1.2931831E3,-3.7749638E1,-3.8208838E0,5.3515167E1,1.9623338E2,9.8176324E2,1.1471771E2,1.0887227E3,4.445691E2,-5.4261314E1,-3.0267792E1,-1.3075384E1,8.787761E0,7.382119E1,3.7229313E1,1.6522235E2,5.190939E2,2.0490144E2,2.242366E3,-1.5747433E0,7.545355E2,1.8751373E3,5.8789453E2,-3.803077E1,-6.1100792E1,-3.5847E1,-1.8888762E1,4.0228224E0,-1.5167436E1,2.5871498E1,4.7867475E0,4.5343872E1,1.169826E2,3.529267E1,2.2707426E2,1.0330563E3,1.5242006E2,1.5582427E3,2.5401266E2,5.0924817E2,-1.3357884E2,6.667452E2,3.595705E2,-7.263975E1,7.449765E2,1.3958185E3,-2.3567701E1,2.4965745E3,1.6481961E2,-1.3472057E2,9.055218E2,-4.047923E0,1.23185E0,-1.3101356E1,-5.830073E0,5.2736847E1,-3.6520562E0,-2.402896E0,7.062313E-1,-8.1538564E-1,1.6961672E0,-1.3519496E0,-2.9133792E0,4.2825217E0,4.691227E-1,4.1816574E-1,1.2910201E1,8.389701E0,2.5312166E0,1.0152321E1,3.0235456E1,3.3144665E0,1.1036761E1,1.7210074E2,3.0867028E0,-5.7347937E0,4.8781955E2,1.8285887E2,1.4678523E1,-7.9188447E0,2.7391635E2,1.601891E1,1.0476025E2,-8.171171E0,8.2518105E1,-4.8448253E0,-1.640071E1,9.6596436E1,-1.1540608E1,-2.37495E1,3.794021E0,1.4604546E2,1.9632357E0,8.697868E0,1.7012589E2,-1.4006907E1,3.448245E2,-2.694911E1,4.7932423E1,1.6412926E2,-3.9759792E1,2.6803806E2,6.090382E1],"categories":[],"categories_nodes":[],"categories_segments":[],"categories_sizes":[],"default_left":[0,0,0,0,0,0,0,0,0,0,0,0,0,0,0,0,0,0,0,0,0,0,0,0,0,0,0,0,0,0,0,0,0,0,0,0,0,0,0,0,0,0,0,0,0,0,0,0,0,0,0,0,0,0,0,0,0,0,0,0,0,0,0,0,0,0,0,0,0,0,0,0,0,0,0,0,0,0,0,0,0,0,0,0,0,0,0,0,0,0,0,0,0,0,0,0,0,0,0,0,0,0,0,0,0,0,0,0,0],"id":10,"left_children":[1,3,5,7,9,11,13,15,17,19,21,23,25,27,-1,29,31,33,35,37,39,41,43,45,47,49,51,53,55,57,59,61,63,65,67,69,71,73,75,77,79,81,83,85,87,89,91,93,-1,95,97,99,-1,101,103,105,107,-1,-1,-1,-1,-1,-1,-1,-1,-1,-1,-1,-1,-1,-1,-1,-1,-1,-1,-1,-1,-1,-1,-1,-1,-1,-1,-1,-1,-1,-1,-1,-1,-1,-1,-1,-1,-1,-1,-1,-1,-1,-1,-1,-1,-1,-1,-1,-1,-1,-1,-1,-1],"loss_changes":[9.4245896E7,3.5204904E7,3.1732024E7,7.8584785E6,1.223951E7,9.094932E6,4.092331E7,1.327614E6,2.1793562E6,1.541284E6,6.822612E6,1.5209316E7,3.8703745E6,2.567976E7,0E0,3.69989E5,4.695585E5,3.8534425E5,5.4026606E5,2.547564E6,9.45307E5,6.853E6,1.6131538E7,1.2012314E6,1.039625E7,2.441463E6,5.40913E6,2.7222488E7,9.991525E6,1.2340975E5,4.53946E5,1.904244E6,3.2551856E5,1.8526306E5,2.20484E5,5.38421E5,4.8139372E5,9.6553875E5,2.333497E6,4.1044625E5,7.5678355E6,3.801504E7,5.61557E6,2.342129E7,3.4804788E6,1.1877234E6,7.5751406E3,1.0477019E6,0E0,7.746774E5,2.0470515E6,1.85071E6,0E0,4.815841E7,1.2219364E6,7.188681E6,1.415371E7,0E0,0E0,0E0,0E0,0E0,0E0,0E0,0E0,0E0,0E0,0E0,0E0,0E0,0E0,0E0,0E0,0E0,0E0,0E0,0E0,0E0,0E0,0E0,0E0,0E0,0E0,0E0,0E0,0E0,0E0,0E0,0E0,0E0,0E0,0E0,0E0,0E0,0E0,0E0,0E0,0E0,0E0,0E0,0E0,0E0,0E0,0E0,0E0,0E0,0E0,0E0,0E0],"parents":[2147483647,0,0,1,1,2,2,3,3,4,4,5,5,6,6,7,7,8,8,9,9,10,10,11,11,12,12,13,13,15,15,16,16,17,17,18,18,19,19,20,20,21,21,22,22,23,23,24,24,25,25,26,26,27,27,28,28,29,29,30,30,31,31,32,32,33,33,34,34,35,35,36,36,37,37,38,38,39,39,40,40,41,41,42,42,43,43,44,44,45,45,46,46,47,47,49,49,50,50,51,51,53,53,54,54,55,55,56,56],"right_children":[2,4,6,8,10,12,14,16,18,20,22,24,26,28,-1,30,32,34,36,38,40,42,44,46,48,50,52,54,56,58,60,62,64,66,68,70,72,74,76,78,80,82,84,86,88,90,92,94,-1,96,98,100,-1,102,104,106,108,-1,-1,-1,-1,-1,-1,-1,-1,-1,-1,-1,-1,-1,-1,-1,-1,-1,-1,-1,-1,-1,-1,-1,-1,-1,-1,-1,-1,-1,-1,-1,-1,-1,-1,-1,-1,-1,-1,-1,-1,-1,-1,-1,-1,-1,-1,-1,-1,-1,-1,-1,-1],"split_conditions":[1.0592916E3,1.5729E2,7.781113E2,2.518E1,3.669175E2,-1.085E0,9.659258E-1,-4.0664165E1,7.1835E1,2.5881904E-1,9.659258E-1,-2.7405E1,9.749279E-1,4.6105E1,4.445691E2,-5E-1,1.4E1,-8.660254E-1,7.0995E1,1.4E1,1.0592916E3,5.05975E1,2.8679034E2,7.818315E-1,9.035E0,5.9942676E2,2.9275168E2,-7.0710677E-1,2.534125E2,1.6067117E2,-1.698E2,-7.365E1,8.524562E1,9.450083E1,9.058667E1,6.123234E-17,7.481781E2,8E0,4.1906067E2,3.4957834E2,1.67022E3,5.421583E1,-1.2502917E2,2.3758743E2,1.0592916E3,-5.4736668E1,7E0,3.3483917E2,3.595705E2,7.097583E1,3.2120584E2,7.167E1,-2.3567701E1,4.4941925E2,-5E-1,1E0,2.8269E2,-4.047923E0,1.23185E0,-1.3101356E1,-5.830073E0,5.2736847E1,-3.6520562E0,-2.402896E0,7.062313E-1,-8.1538564E-1,1.6961672E0,-1.3519496E0,-2.9133792E0,4.2825217E0,4.691227E-1,4.1816574E-1,1.2910201E1,8.389701E0,2.5312166E0,1.0152321E1,3.0235456E1,3.3144665E0,1.1036761E1,1.7210074E2,3.0867028E0,-5.7347937E0,4.8781955E2,1.8285887E2,1.4678523E1,-7.9188447E0,2.7391635E2,1.601891E1,1.0476025E2,-8.171171E0,8.2518105E1,-4.8448253E0,-1.640071E1,9.6596436E1,-1.1540608E1,-2.37495E1,3.794021E0,1.4604546E2,1.9632357E0,8.697868E0,1.7012589E2,-1.4006907E1,3.448245E2,-2.694911E1,4.7932423E1,1.6412926E2,-3.9759792E1,2.6803806E2,6.090382E1],"split_indices":[0,0,12,0,0,7,25,0,0,26,25,7,27,3,0,25,15,25,1,15,4,10,10,27,13,11,1,25,2,11,0,3,12,14,2,26,11,15,12,0,14,4,5,10,5,7,18,1,0,5,1,7,0,10,26,15,2,0,0,0,0,0,0,0,0,0,0,0,0,0,0,0,0,0,0,0,0,0,0,0,0,0,0,0,0,0,0,0,0,0,0,0,0,0,0,0,0,0,0,0,0,0,0,0,0,0,0,0,0],"split_type":[0,0,0,0,0,0,0,0,0,0,0,0,0,0,0,0,0,0,0,0,0,0,0,0,0,0,0,0,0,0,0,0,0,0,0,0,0,0,0,0,0,0,0,0,0,0,0,0,0,0,0,0,0,0,0,0,0,0,0,0,0,0,0,0,0,0,0,0,0,0,0,0,0,0,0,0,0,0,0,0,0,0,0,0,0,0,0,0,0,0,0,0,0,0,0,0,0,0,0,0,0,0,0,0,0,0,0,0,0],"sum_hessian":[3.4927E4,3.4791E4,1.36E2,2.9434E4,5.357E3,6.6E1,7E1,1.0759E4,1.8675E4,4.668E3,6.89E2,1.5E1,5.1E1,6.7E1,3E0,3.353E3,7.406E3,1.077E4,7.905E3,2.076E3,2.592E3,6.3E2,5.9E1,1E1,5E0,4.4E1,7E0,2.5E1,4.2E1,9.96E2,2.357E3,4.968E3,2.438E3,1.174E3,9.596E3,1.499E3,6.406E3,1.252E3,8.24E2,2.567E3,2.5E1,8E0,6.22E2,1.1E1,4.8E1,5E0,5E0,3E0,2E0,4.1E1,3E0,4E0,3E0,1.8E1,7E0,1.3E1,2.9E1,9.5E2,4.6E1,8.9E1,2.268E3,5E0,4.963E3,2.035E3,4.03E2,6.05E2,5.69E2,8.585E3,1.011E3,8.32E2,6.67E2,6.376E3,3E1,4.27E2,8.25E2,7.62E2,6.2E1,2.497E3,7E1,2E0,2.3E1,7E0,1E0,1E0,6.21E2,5E0,6E0,4.4E1,4E0,2E0,3E0,2E0,3E0,2E0,1E0,1.6E1,2.5E1,1E0,2E0,1E0,3E0,5E0,1.3E1,3E0,4E0,1E0,1.2E1,3E0,2.6E1],"tree_param":{"num_deleted":"0","num_feature":"30","num_nodes":"109","size_leaf_vector":"1"}},{"base_weights":[1.4182688E0,-1.7376449E0,7.4942566E2,-1.088427E1,1.001788E2,2.7047522E2,1.3761289E3,-2.4336777E1,1.0323455E1,6.632759E1,1.659242E2,1.0236484E2,8.8118744E2,1.0943015E3,2.9454932E3,-4.4060307E1,-1.698018E1,-1.9325364E0,1.98983E1,5.9472237E1,1.830209E2,3.6861588E2,1.2947444E2,-9.238694E1,5.646559E2,-1.6440178E2,1.4176906E3,1.9640145E3,4.0781677E2,3.9981494E3,-4.925021E2,-6.0033592E1,-3.857159E1,-6.7032385E0,-2.0206121E1,2.3817339E1,-4.871061E0,3.302606E2,1.9176243E1,1.6678246E2,5.38592E1,6.9363354E2,8.916784E1,1.525196E3,2.4502754E2,9.799465E1,3.2412E2,1.5576088E2,-3.0835284E2,1.3161982E3,-4.6047253E1,3.2047237E1,-2.4941084E1,5.741617E2,2.961183E2,2.77222E3,3.0896982E2,2.2847537E2,1.3486284E2,2.0344603E2,4.9622763E2,-9.8823975E1,2.4943657E1,6.0821835E1,-6.147848E0,-2.903035E0,-4.4396276E0,-1.1023911E0,2.077557E0,-2.6446893E0,-1.4746798E0,1.5813265E0,1.6816996E1,-1.6418752E-1,-1.4878975E0,2.0500903E2,7.8925905E0,1.853669E0,1.4068888E1,1.519901E2,6.6956034E0,-3.8027603E1,5.4854927E0,2.638837E2,4.1745353E0,5.2026725E0,1.1365043E2,3.124382E2,-6.47288E0,1.5506815E1,1.1466842E2,3.0021226E0,1.263473E1,1.9464095E2,2.77771E1,3.3506344E1,-2.2230186E1,-1.9285427E1,-5.9428406E1,-3.6800533E1,2.7371823E2,-2.576449E1,6.74594E1,7.402561E0,-2.5904758E0,1.1222776E2,2.5721754E1,3.3646127E2,1.5386357E1,7.362752E1,-1.8010942E1,-1.7464539E1,5.8789497E1],"categories":[],"categories_nodes":[],"categories_segments":[],"categories_sizes":[],"default_left":[0,0,0,0,0,0,0,0,0,0,0,0,0,0,0,0,0,0,0,0,0,0,0,0,0,0,0,0,0,0,0,0,0,0,0,0,0,0,0,0,0,0,0,0,0,0,0,0,0,0,0,0,0,0,0,0,0,0,0,0,0,0,0,0,0,0,0,0,0,0,0,0,0,0,0,0,0,0,0,0,0,0,0,0,0,0,0,0,0,0,0,0,0,0,0,0,0,0,0,0,0,0,0,0,0,0,0,0,0,0,0,0,0],"id":11,"left_children":[1,3,5,7,9,11,13,15,17,19,21,23,25,27,29,31,33,35,37,39,41,43,45,47,49,51,53,55,57,59,61,63,65,67,69,71,73,75,77,79,81,83,85,87,89,91,93,95,97,99,101,103,-1,105,-1,107,109,-1,111,-1,-1,-1,-1,-1,-1,-1,-1,-1,-1,-1,-1,-1,-1,-1,-1,-1,-1,-1,-1,-1,-1,-1,-1,-1,-1,-1,-1,-1,-1,-1,-1,-1,-1,-1,-1,-1,-1,-1,-1,-1,-1,-1,-1,-1,-1,-1,-1,-1,-1,-1,-1,-1,-1],"loss_changes":[8.203386E7,3.225957E7,4.345096E7,9.060145E6,6.33182E6,8.533732E6,2.46406E7,2.818646E6,1.4464868E6,1.495443E6,7.10387E6,6.084358E6,1.033051E7,3.203626E7,3.454069E7,4.60412E5,4.691065E5,4.0924366E5,1.544396E6,1.0631535E6,4.922019E6,2.0638262E7,5.004919E6,2.6204348E6,9.24012E6,1.2491428E5,1.392321E7,3.1245944E7,1.6085785E7,3.156464E6,1.3499978E6,1.3389E6,2.17168E5,4.0188134E5,3.66612E5,6.374189E5,1.5684262E5,6.754027E6,5.3399E5,1.1784851E7,7.52679E5,2.0178454E7,3.402785E6,3.5798744E7,1.0691129E7,1.3625955E6,8.030954E6,1.6336119E6,7.4395175E5,2.2546572E7,2.0035956E6,9.22062E3,0E0,1.274692E6,0E0,2.4299464E7,2.013541E6,0E0,4.169012E6,0E0,0E0,0E0,0E0,0E0,0E0,0E0,0E0,0E0,0E0,0E0,0E0,0E0,0E0,0E0,0E0,0E0,0E0,0E0,0E0,0E0,0E0,0E0,0E0,0E0,0E0,0E0,0E0,0E0,0E0,0E0,0E0,0E0,0E0,0E0,0E0,0E0,0E0,0E0,0E0,0E0,0E0,0E0,0E0,0E0,0E0,0E0,0E0,0E0,0E0,0E0,0E0,0E0,0E0],"parents":[2147483647,0,0,1,1,2,2,3,3,4,4,5,5,6,6,7,7,8,8,9,9,10,10,11,11,12,12,13,13,14,14,15,15,16,16,17,17,18,18,19,19,20,20,21,21,22,22,23,23,24,24,25,25,26,26,27,27,28,28,29,29,30,30,31,31,32,32,33,33,34,34,35,35,36,36,37,37,38,38,39,39,40,40,41,41,42,42,43,43,44,44,45,45,46,46,47,47,48,48,49,49,50,50,51,51,53,53,55,55,56,56,58,58],"right_children":[2,4,6,8,10,12,14,16,18,20,22,24,26,28,30,32,34,36,38,40,42,44,46,48,50,52,54,56,58,60,62,64,66,68,70,72,74,76,78,80,82,84,86,88,90,92,94,96,98,100,102,104,-1,106,-1,108,110,-1,112,-1,-1,-1,-1,-1,-1,-1,-1,-1,-1,-1,-1,-1,-1,-1,-1,-1,-1,-1,-1,-1,-1,-1,-1,-1,-1,-1,-1,-1,-1,-1,-1,-1,-1,-1,-1,-1,-1,-1,-1,-1,-1,-1,-1,-1,-1,-1,-1,-1,-1,-1,-1,-1,-1],"split_conditions":[1.0592916E3,2.2502083E2,5.1059253E2,6.141E1,3.3483917E2,2.4169833E2,8.660254E-1,-1.9745E1,9.888084E1,4.2347833E2,2.8269E2,4.4E1,1.4316667E2,1.74875E2,4.2347833E2,-6.247333E1,-5E-1,4.4175E1,-5.1733334E1,3E0,1.075582E2,7.541971E1,5.8204333E2,-2.5881904E-1,3.438E1,-3.6835E1,7.781113E2,3.3483917E2,3.2120584E2,6E0,5.2194168E1,1.1288937E1,-2.5881904E-1,7.366646E1,3.0350834E1,3E1,9.889083E1,1.0015083E2,1.0592916E3,-9.659258E-1,-2.9891388E1,1.8E1,3.4E1,-1.8369701E-16,3.4957834E2,3.669175E2,1.9286792E2,5.403712E2,3.1502026E2,-4.8995E1,4.268884E2,3.2120584E2,-2.4941084E1,8E0,2.961183E2,2.6450737E3,-1.7943333E1,2.2847537E2,2.6450737E3,2.0344603E2,4.9622763E2,-9.8823975E1,2.4943657E1,6.0821835E1,-6.147848E0,-2.903035E0,-4.4396276E0,-1.1023911E0,2.077557E0,-2.6446893E0,-1.4746798E0,1.5813265E0,1.6816996E1,-1.6418752E-1,-1.4878975E0,2.0500903E2,7.8925905E0,1.853669E0,1.4068888E1,1.519901E2,6.6956034E0,-3.8027603E1,5.4854927E0,2.638837E2,4.1745353E0,5.2026725E0,1.1365043E2,3.124382E2,-6.47288E0,1.5506815E1,1.1466842E2,3.0021226E0,1.263473E1,1.9464095E2,2.77771E1,3.3506344E1,-2.2230186E1,-1.9285427E1,-5.9428406E1,-3.6800533E1,2.7371823E2,-2.576449E1,6.74594E1,7.402561E0,-2.5904758E0,1.1222776E2,2.5721754E1,3.3646127E2,1.5386357E1,7.362752E1,-1.8010942E1,-1.7464539E1,5.8789497E1],"split_indices":[0,0,11,0,0,7,25,0,0,5,1,29,5,3,7,0,25,1,1,18,9,12,0,26,7,4,12,5,1,18,1,12,25,11,0,17,1,0,4,25,9,29,20,26,3,0,9,12,11,7,11,1,0,15,0,12,3,0,12,0,0,0,0,0,0,0,0,0,0,0,0,0,0,0,0,0,0,0,0,0,0,0,0,0,0,0,0,0,0,0,0,0,0,0,0,0,0,0,0,0,0,0,0,0,0,0,0,0,0,0,0,0,0],"split_type":[0,0,0,0,0,0,0,0,0,0,0,0,0,0,0,0,0,0,0,0,0,0,0,0,0,0,0,0,0,0,0,0,0,0,0,0,0,0,0,0,0,0,0,0,0,0,0,0,0,0,0,0,0,0,0,0,0,0,0,0,0,0,0,0,0,0,0,0,0,0,0,0,0,0,0,0,0,0,0,0,0,0,0,0,0,0,0,0,0,0,0,0,0,0,0,0,0,0,0,0,0,0,0,0,0,0,0,0,0,0,0,0,0],"sum_hessian":[3.4749E4,3.4604E4,1.45E2,3.1755E4,2.849E3,8.3E1,6.2E1,1.943E4,1.2325E4,1.882E3,9.67E2,6.6E1,1.7E1,5.4E1,8E0,5.277E3,1.4153E4,5.406E3,6.919E3,1.779E3,1.03E2,1.46E2,8.21E2,4.7E1,1.9E1,6E0,1.1E1,2.3E1,3.1E1,6E0,2E0,1.347E3,3.93E3,3.382E3,1.0771E4,5.53E2,4.853E3,1.5E1,6.904E3,8.7E1,1.692E3,1.5E1,8.8E1,1.3E1,1.33E2,7.08E2,1.13E2,2.2E1,2.5E1,8E0,1.1E1,2E0,4E0,8E0,3E0,1.5E1,8E0,3E0,2.8E1,3E0,3E0,1E0,1E0,2E0,1.345E3,1.492E3,2.438E3,2.923E3,4.59E2,5.024E3,5.747E3,5.25E2,2.8E1,3.67E3,1.183E3,1E0,1.4E1,6.869E3,3.5E1,5E0,8.2E1,3E0,1.689E3,3E0,1.2E1,8.6E1,2E0,6E0,7E0,1.22E2,1.1E1,2.09E2,4.99E2,2E0,1.11E2,1.5E1,7E0,1.9E1,6E0,4E0,4E0,9E0,2E0,1E0,1E0,2E0,6E0,1.2E1,3E0,4E0,4E0,1.7E1,1.1E1],"tree_param":{"num_deleted":"0","num_feature":"30","num_nodes":"113","size_leaf_vector":"1"}},{"base_weights":[2.031034E0,-1.4031011E0,8.046837E2,-7.8189883E0,1.2630311E2,6.7614667E2,2.9856191E3,-2.0392391E1,1.5435665E1,1.8881253E2,6.792074E1,2.0759042E2,1.0264459E3,5.231355E2,1.3651313E3,-4.050348E1,-1.3806905E1,6.5699472E0,3.1648352E1,8.8417496E1,3.201103E2,6.1319035E1,1.0006272E3,7.2637415E2,-4.5339746E0,-1.8534818E2,1.2608396E3,2.6440384E2,6.464324E1,-6.107044E1,-3.682473E1,-1.8732195E1,-7.639813E0,2.7700806E2,6.028975E0,1.5639869E1,4.2008774E1,6.693558E2,7.920445E1,1.0465173E3,1.9471779E2,1.6798251E2,5.7470222E1,1.1064479E2,2.7252194E2,1.2493189E2,1.653636E3,-4.8441986E1,9.636593E1,-3.4172208E2,1.6444926E2,1.4752563E3,-3.086878E2,-2.3272955E1,2.4137735E1,-7.6269717E0,-3.6084797E0,-2.1525133E0,-3.9173882E0,-6.102474E-1,-2.186036E0,-7.9681677E-1,1.7454576E1,1.9475859E2,1.8560619E0,4.251015E-1,2.9727943E0,1.6400656E0,-1.3950614E1,6.7010474E0,2.67422E0,2.5166304E2,-5.794507E0,7.114503E0,4.6709545E1,3.6751944E2,8.0565636E1,1.30969305E1,5.1598927E1,3.598233E0,1.1419102E1,3.2048077E1,-2.190938E0,-1.100325E0,8.101592E1,4.10963E1,3.1735126E2,1.8011383E0,-3.4974606E1,-1.522288E1,-5.007496E1,-1.7558681E1,2.9337997E1,3.9875264E0,1.761533E2,-7.668831E1,4.5575203E1],"categories":[],"categories_nodes":[],"categories_segments":[],"categories_sizes":[],"default_left":[0,0,0,0,0,0,0,0,0,0,0,0,0,0,0,0,0,0,0,0,0,0,0,0,0,0,0,0,0,0,0,0,0,0,0,0,0,0,0,0,0,0,0,0,0,0,0,0,0,0,0,0,0,0,0,0,0,0,0,0,0,0,0,0,0,0,0,0,0,0,0,0,0,0,0,0,0,0,0,0,0,0,0,0,0,0,0,0,0,0,0,0,0,0,0,0,0],"id":12,"left_children":[1,3,5,7,9,11,13,15,17,19,21,23,25,-1,27,29,31,33,35,37,39,41,43,45,47,49,51,-1,53,55,57,59,61,63,65,67,69,71,73,75,77,-1,79,81,-1,83,85,87,-1,89,91,93,95,-1,-1,-1,-1,-1,-1,-1,-1,-1,-1,-1,-1,-1,-1,-1,-1,-1,-1,-1,-1,-1,-1,-1,-1,-1,-1,-1,-1,-1,-1,-1,-1,-1,-1,-1,-1,-1,-1,-1,-1,-1,-1,-1,-1],"loss_changes":[9.640416E7,2.853561E7,3.9750256E7,9.696264E6,6.067132E6,2.3093952E7,2.197136E7,2.850102E6,1.6726005E6,1.05697E7,5.2524145E6,6.8262595E6,2.3240784E7,0E0,9.808027E6,3.99425E5,4.9241075E5,1.0992051E6,6.81663E5,2.3928705E6,3.1494028E7,5.248047E6,8.907326E6,9.831731E6,1.9596048E6,8.2200225E5,2.333976E7,0E0,2.6640016E5,3.0256625E5,1.61101E5,3.5602725E5,4.32209E5,6.4400035E6,3.1635234E5,1.9325325E5,9.512795E5,9.550743E6,1.3766205E6,2.9329036E7,6.035566E6,0E0,1.04039675E6,1.4612453E5,0E0,1.126752E6,1.1916412E7,8.873301E5,0E0,2.2505262E5,2.7073094E5,2.4584552E7,3.501904E6,0E0,0E0,0E0,0E0,0E0,0E0,0E0,0E0,0E0,0E0,0E0,0E0,0E0,0E0,0E0,0E0,0E0,0E0,0E0,0E0,0E0,0E0,0E0,0E0,0E0,0E0,0E0,0E0,0E0,0E0,0E0,0E0,0E0,0E0,0E0,0E0,0E0,0E0,0E0,0E0,0E0,0E0,0E0,0E0],"parents":[2147483647,0,0,1,1,2,2,3,3,4,4,5,5,6,6,7,7,8,8,9,9,10,10,11,11,12,12,14,14,15,15,16,16,17,17,18,18,19,19,20,20,21,21,22,22,23,23,24,24,25,25,26,26,28,28,29,29,30,30,31,31,32,32,33,33,34,34,35,35,36,36,37,37,38,38,39,39,40,40,42,42,43,43,45,45,46,46,47,47,49,49,50,50,51,51,52,52],"right_children":[2,4,6,8,10,12,14,16,18,20,22,24,26,-1,28,30,32,34,36,38,40,42,44,46,48,50,52,-1,54,56,58,60,62,64,66,68,70,72,74,76,78,-1,80,82,-1,84,86,88,-1,90,92,94,96,-1,-1,-1,-1,-1,-1,-1,-1,-1,-1,-1,-1,-1,-1,-1,-1,-1,-1,-1,-1,-1,-1,-1,-1,-1,-1,-1,-1,-1,-1,-1,-1,-1,-1,-1,-1,-1,-1,-1,-1,-1,-1,-1,-1],"split_conditions":[1.0592916E3,2.8269E2,4.7860834E2,7.1835E1,2.5881904E-1,3.0750024E3,9.761916E1,-1.9745E1,1.501525E2,-2.5881904E-1,1.0592916E3,-1.085E0,2.8585E1,5.231355E2,9E0,-7.875833E1,4.02E1,-9.360667E1,1.2916E2,3E0,1.3695416E2,-1.2502917E2,1.0592916E3,-2.2450834E1,4.2347833E2,6.3E1,3.0814667E2,2.6440384E2,1.8485167E2,-7.0710677E-1,-6.53525E1,-1.79E0,5.9942676E2,4E0,2.0972667E2,5.8204333E2,1.6282417E2,7.381333E1,8.976332E3,2.246E1,3E1,1.6798251E2,4.2347833E2,-9.07E0,2.7252194E2,5.6439026E2,9.035E0,5E0,9.636593E1,-5E-1,-1.6019167E1,-5E-1,2.9987918E2,-2.3272955E1,2.4137735E1,-7.6269717E0,-3.6084797E0,-2.1525133E0,-3.9173882E0,-6.102474E-1,-2.186036E0,-7.9681677E-1,1.7454576E1,1.9475859E2,1.8560619E0,4.251015E-1,2.9727943E0,1.6400656E0,-1.3950614E1,6.7010474E0,2.67422E0,2.5166304E2,-5.794507E0,7.114503E0,4.6709545E1,3.6751944E2,8.0565636E1,1.30969305E1,5.1598927E1,3.598233E0,1.1419102E1,3.2048077E1,-2.190938E0,-1.100325E0,8.101592E1,4.10963E1,3.1735126E2,1.8011383E0,-3.4974606E1,-1.522288E1,-5.007496E1,-1.7558681E1,2.9337997E1,3.9875264E0,1.761533E2,-7.668831E1,4.5575203E1],"split_indices":[0,0,6,0,26,14,7,0,0,26,7,7,7,0,17,0,0,2,5,20,7,5,2,7,7,29,6,0,2,26,2,2,11,18,5,4,2,2,14,2,20,0,2,4,0,9,13,16,0,26,4,26,4,0,0,0,0,0,0,0,0,0,0,0,0,0,0,0,0,0,0,0,0,0,0,0,0,0,0,0,0,0,0,0,0,0,0,0,0,0,0,0,0,0,0,0,0],"split_type":[0,0,0,0,0,0,0,0,0,0,0,0,0,0,0,0,0,0,0,0,0,0,0,0,0,0,0,0,0,0,0,0,0,0,0,0,0,0,0,0,0,0,0,0,0,0,0,0,0,0,0,0,0,0,0,0,0,0,0,0,0,0,0,0,0,0,0,0,0,0,0,0,0,0,0,0,0,0,0,0,0,0,0,0,0,0,0,0,0,0,0,0,0,0,0,0,0],"sum_hessian":[3.4973E4,3.4825E4,1.48E2,3.316E4,1.665E3,1.41E2,7E0,2.1523E4,1.1637E4,8.03E2,8.62E2,6.1E1,8E1,2E0,5E0,5.308E3,1.6215E4,7.524E3,4.113E3,4.56E2,3.47E2,8.57E2,5E0,1.7E1,4.4E1,1.3E1,6.7E1,2E0,3E0,8.03E2,4.505E3,9.014E3,7.201E3,1.4E1,7.51E3,1.617E3,2.496E3,6E0,4.5E2,5E1,2.97E2,1E0,8.56E2,4E0,1E0,1.1E1,6E0,4.3E1,1E0,9E0,4E0,5.9E1,8E0,1E0,2E0,4.98E2,3.05E2,6.01E2,3.904E3,1.79E3,7.224E3,7.189E3,1.2E1,1E0,1.3E1,6.987E3,5.23E2,1.61E3,7E0,9.45E2,1.551E3,1E0,5E0,4.42E2,8E0,3E0,4.7E1,2.49E2,4.8E1,6.22E2,2.34E2,1E0,3E0,1E1,1E0,4E0,2E0,3.6E1,7E0,5E0,4E0,1E0,3E0,1E1,4.9E1,5E0,3E0],"tree_param":{"num_deleted":"0","num_feature":"30","num_nodes":"97","size_leaf_vector":"1"}},{"base_weights":[9.9874395E-1,-1.8987257E0,7.085668E2,-1.1950953E1,5.4676136E1,4.4177454E2,1.2384261E3,-2.8319384E1,-2.536381E0,4.381239E1,1.8439459E2,1.1553835E3,2.6228165E2,2.4483887E3,8.007017E2,-4.6401287E1,-2.3739227E1,-8.325612E0,8.32125E0,6.4339325E1,2.712018E1,2.0808318E3,1.6501743E2,3.4539136E2,3.3542632E3,-2.5098825E2,5.7117786E2,2.71915E3,-2.6494144E1,2.333316E1,1.2943257E3,-9.5488945E1,-4.2998055E1,-6.479909E0,-2.5500668E1,-1.0081349E1,1.0337568E1,4.4815503E2,7.8459945E0,1.7953516E2,5.4994934E1,2.5278208E1,1.9367409E2,-1.8737253E2,4.4427725E2,1.5958337E2,1.5745055E2,7.991241E1,1.0554553E2,7.808796E1,3.8023642E2,2.490596E1,-4.9395856E2,1.1667595E3,1.5508086E2,3.5233855E3,1.04937E3,9.52708E2,-2.8839456E2,6.398622E2,2.3596416E3,-1.3139223E1,-3.0255923E0,-3.292881E0,-5.0888166E0,-1.013842E0,1.2514392E0,-3.0108705E0,-2.0175545E0,-8.969347E-1,-2.9645991E0,7.946417E-1,5.0800083E1,1.8502068E2,-9.387137E0,2.2205243E0,3.241832E-1,7.15808E1,7.6449533E0,4.551383E0,1.2133192E1,1.2561804E0,3.8072076E0,3.0399626E-1,1.8447899E2,-6.788905E-1,-2.7421991E1,-2.2069555E1,1.8324907E1,-5.275034E0,7.696513E1,-6.792348E0,4.188982E1,3.2871197E1,-6.349695E1,1.6114783E2,-1.3948077E1,-2.4034224E1,5.6653347E1,5.1940273E1,3.9374655E2,-6.2011116E1,1.621793E2,2.5677784E1,1.0990588E2,-4.7659332E1,7.0382385E0,1.0926839E2,-4.8429783E1,4.1621174E1,3.4424374E2],"categories":[],"categories_nodes":[],"categories_segments":[],"categories_sizes":[],"default_left":[0,0,0,0,0,0,0,0,0,0,0,0,0,0,0,0,0,0,0,0,0,0,0,0,0,0,0,0,0,0,0,0,0,0,0,0,0,0,0,0,0,0,0,0,0,0,0,0,0,0,0,0,0,0,0,0,0,0,0,0,0,0,0,0,0,0,0,0,0,0,0,0,0,0,0,0,0,0,0,0,0,0,0,0,0,0,0,0,0,0,0,0,0,0,0,0,0,0,0,0,0,0,0,0,0,0,0,0,0,0,0],"id":13,"left_children":[1,3,5,7,9,11,13,15,17,19,21,23,25,27,29,31,33,35,37,39,41,43,45,47,49,51,53,55,-1,57,59,61,63,65,67,69,71,73,75,77,79,81,83,85,-1,-1,87,89,-1,-1,-1,91,93,95,97,99,101,103,105,107,109,-1,-1,-1,-1,-1,-1,-1,-1,-1,-1,-1,-1,-1,-1,-1,-1,-1,-1,-1,-1,-1,-1,-1,-1,-1,-1,-1,-1,-1,-1,-1,-1,-1,-1,-1,-1,-1,-1,-1,-1,-1,-1,-1,-1,-1,-1,-1,-1,-1,-1],"loss_changes":[7.1383784E7,1.9721576E7,1.9526184E7,4.537605E6,7.364982E6,1.1993246E7,2.2931864E7,8.8935E5,1.175187E6,1.652854E6,1.4502421E7,3.268153E7,1.2510068E7,9.536624E6,1.378387E7,3.587275E5,2.60705E5,3.9967288E5,1.3555728E6,2.320585E6,8.12672E5,2.2262334E7,4.09011E6,2.743148E6,2.796028E6,2.0233724E6,1.1962092E7,1.1074072E7,0E0,4.6205005E6,1.3828484E7,3.2389962E5,1.598325E5,5.5441348E4,1.90443E5,2.4222188E5,1.2442096E6,5.4935005E6,4.293911E5,8.900885E6,1.254873E6,4.2853538E5,9.122219E6,4.5159883E4,0E0,0E0,3.942684E6,1.138703E6,0E0,0E0,0E0,5.770993E5,2.064841E6,1.184311E7,5.01713E6,6.661648E6,5.7840395E6,1.2505025E5,8.438409E5,8.164904E6,1.5401524E7,0E0,0E0,0E0,0E0,0E0,0E0,0E0,0E0,0E0,0E0,0E0,0E0,0E0,0E0,0E0,0E0,0E0,0E0,0E0,0E0,0E0,0E0,0E0,0E0,0E0,0E0,0E0,0E0,0E0,0E0,0E0,0E0,0E0,0E0,0E0,0E0,0E0,0E0,0E0,0E0,0E0,0E0,0E0,0E0,0E0,0E0,0E0,0E0,0E0,0E0],"parents":[2147483647,0,0,1,1,2,2,3,3,4,4,5,5,6,6,7,7,8,8,9,9,10,10,11,11,12,12,13,13,14,14,15,15,16,16,17,17,18,18,19,19,20,20,21,21,22,22,23,23,24,24,25,25,26,26,27,27,29,29,30,30,31,31,32,32,33,33,34,34,35,35,36,36,37,37,38,38,39,39,40,40,41,41,42,42,43,43,46,46,47,47,51,51,52,52,53,53,54,54,55,55,56,56,57,57,58,58,59,59,60,60],"right_children":[2,4,6,8,10,12,14,16,18,20,22,24,26,28,30,32,34,36,38,40,42,44,46,48,50,52,54,56,-1,58,60,62,64,66,68,70,72,74,76,78,80,82,84,86,-1,-1,88,90,-1,-1,-1,92,94,96,98,100,102,104,106,108,110,-1,-1,-1,-1,-1,-1,-1,-1,-1,-1,-1,-1,-1,-1,-1,-1,-1,-1,-1,-1,-1,-1,-1,-1,-1,-1,-1,-1,-1,-1,-1,-1,-1,-1,-1,-1,-1,-1,-1,-1,-1,-1,-1,-1,-1,-1,-1,-1,-1,-1],"split_conditions":[1.0592916E3,1.5729E2,2.476275E2,2.518E1,4.2347833E2,7.0238335E1,2.8280667E2,-5.1733334E1,8.1635E1,2.5881904E-1,5.05975E1,6.243E1,3E0,2.9987918E2,7E0,-1.698E2,-8.660254E-1,1.3492E2,-1.6096666E1,1.2E1,1.0592916E3,-2.4925833E1,-1.2502917E2,5E-1,6.4835E1,7.1862805E2,4.9315E1,3.3483917E2,-2.6494144E1,1.88805E2,8.660254E-1,-7.0710677E-1,-2.5881904E-1,1.7162167E2,-1.785E0,1.17183334E2,5.6439026E2,3.0425E1,8.502E1,-9.659258E-1,3.4957834E2,1.8125583E2,9.659258E-1,4.7860834E2,4.4427725E2,1.5958337E2,1.8125583E2,5E1,1.0554553E2,7.808796E1,3.8023642E2,3.7E1,1.4741667E1,1.0499834E2,1.02675835E2,5.158618E2,1.3501E2,1.47835E2,3.669175E2,3.3E1,5.1059253E2,-1.3139223E1,-3.0255923E0,-3.292881E0,-5.0888166E0,-1.013842E0,1.2514392E0,-3.0108705E0,-2.0175545E0,-8.969347E-1,-2.9645991E0,7.946417E-1,5.0800083E1,1.8502068E2,-9.387137E0,2.2205243E0,3.241832E-1,7.15808E1,7.6449533E0,4.551383E0,1.2133192E1,1.2561804E0,3.8072076E0,3.0399626E-1,1.8447899E2,-6.788905E-1,-2.7421991E1,-2.2069555E1,1.8324907E1,-5.275034E0,7.696513E1,-6.792348E0,4.188982E1,3.2871197E1,-6.349695E1,1.6114783E2,-1.3948077E1,-2.4034224E1,5.6653347E1,5.1940273E1,3.9374655E2,-6.2011116E1,1.621793E2,2.5677784E1,1.0990588E2,-4.7659332E1,7.0382385E0,1.0926839E2,-4.8429783E1,4.1621174E1,3.4424374E2],"split_indices":[0,0,4,0,0,2,4,0,0,26,10,5,16,3,18,0,25,7,8,20,4,1,5,25,1,9,7,5,0,2,25,26,25,7,0,2,9,5,1,25,7,3,26,0,0,0,1,20,0,0,0,20,4,6,4,10,2,3,5,20,11,0,0,0,0,0,0,0,0,0,0,0,0,0,0,0,0,0,0,0,0,0,0,0,0,0,0,0,0,0,0,0,0,0,0,0,0,0,0,0,0,0,0,0,0,0,0,0,0,0,0],"split_type":[0,0,0,0,0,0,0,0,0,0,0,0,0,0,0,0,0,0,0,0,0,0,0,0,0,0,0,0,0,0,0,0,0,0,0,0,0,0,0,0,0,0,0,0,0,0,0,0,0,0,0,0,0,0,0,0,0,0,0,0,0,0,0,0,0,0,0,0,0,0,0,0,0,0,0,0,0,0,0,0,0,0,0,0,0,0,0,0,0,0,0,0,0,0,0,0,0,0,0,0,0,0,0,0,0,0,0,0,0,0,0],"sum_hessian":[3.4817E4,3.4676E4,1.41E2,2.9445E4,5.231E3,9.5E1,4.6E1,1.0751E4,1.8694E4,4.828E3,4.03E2,1.8E1,7.7E1,1.1E1,3.5E1,2.171E3,8.58E3,1.2193E4,6.501E3,2.164E3,2.664E3,3E0,4E2,1.4E1,4E0,2.9E1,4.8E1,1E1,1E0,1.4E1,2.1E1,1.39E2,2.032E3,7.95E2,7.785E3,1.1145E4,1.048E3,6E0,6.495E3,1.61E2,2.003E3,2.636E3,2.8E1,2E0,1E0,1E0,3.99E2,1.1E1,3E0,1E0,3E0,1.4E1,1.5E1,1.9E1,2.9E1,6E0,4E0,3E0,1.1E1,1.4E1,7E0,8.9E1,5E1,8.95E2,1.137E3,6.67E2,1.28E2,4.171E3,3.614E3,1.0547E4,5.98E2,1.044E3,4E0,1E0,5E0,1.576E3,4.919E3,2.5E1,1.36E2,1.754E3,2.49E2,1.323E3,1.313E3,2.6E1,2E0,1E0,1E0,2.5E1,3.74E2,1E1,1E0,1.2E1,2E0,2E0,1.3E1,1.4E1,5E0,1.5E1,1.4E1,1E0,5E0,1E0,3E0,1E0,2E0,7E0,4E0,1E1,4E0,3E0,4E0],"tree_param":{"num_deleted":"0","num_feature":"30","num_nodes":"111","size_leaf_vector":"1"}},{"base_weights":[2.081297E0,-5.1059455E-1,6.924392E2,-5.887122E0,1.0788424E2,1.8080649E2,1.1091812E3,-1.4814784E1,1.8527704E1,1.5160422E2,1.0610978E2,3.2085438E1,1.3022394E3,9.55226E2,2.9811147E3,-2.7677753E1,-7.574793E0,5.046357E2,1.8143105E1,1.5690395E2,5.7536907E1,2.6935696E2,-4.191651E2,3.029828E2,1.9759111E2,1.7295101E3,6.4189154E2,-1.8934454E1,3.821091E2,-4.100668E1,-2.3203482E1,-9.624622E0,5.1154633E0,1.7576964E2,2.8262174E0,8.942023E0,2.970402E1,6.238482E1,2.941696E2,5.2685802E1,2.0734583E2,6.92235E2,2.3740016E-1,-5.568199E2,-2.8093012E1,-5.1462016E0,4.3831844E1,3.9655344E3,1.0624034E3,3.3805182E2,5.17009E2,-8.909442E0,-3.8216648E0,-1.9021893E0,-3.158471E0,-7.8215146E-1,-1.7644901E0,4.1068894E-1,2.7677855E1,-5.985435E0,2.73532E0,1.51035795E1,8.451107E-1,2.414436E0,8.988588E0,5.058654E1,5.4719577E0,9.445074E1,1.7930954E1,4.6208415E0,8.196558E1,1.4400197E2,-4.8593426E0,-1.0850763E1,7.614068E1,-8.533656E1,-3.5285507E1,-1.5227323E1,1.4681162E1,4.7516037E2,8.0361336E1,6.111028E1,2.8143054E2,2.1314075E1,1.3420872E2],"categories":[],"categories_nodes":[],"categories_segments":[],"categories_sizes":[],"default_left":[0,0,0,0,0,0,0,0,0,0,0,0,0,0,0,0,0,0,0,0,0,0,0,0,0,0,0,0,0,0,0,0,0,0,0,0,0,0,0,0,0,0,0,0,0,0,0,0,0,0,0,0,0,0,0,0,0,0,0,0,0,0,0,0,0,0,0,0,0,0,0,0,0,0,0,0,0,0,0,0,0,0,0,0,0],"id":14,"left_children":[1,3,5,7,9,11,13,15,17,-1,19,21,23,25,27,29,31,33,35,37,39,41,43,45,-1,47,49,-1,-1,51,53,55,57,-1,59,61,63,65,67,69,-1,71,73,75,77,-1,-1,79,81,-1,83,-1,-1,-1,-1,-1,-1,-1,-1,-1,-1,-1,-1,-1,-1,-1,-1,-1,-1,-1,-1,-1,-1,-1,-1,-1,-1,-1,-1,-1,-1,-1,-1,-1,-1],"loss_changes":[6.266822E7,2.033584E7,2.7730988E7,7.246597E6,3.959346E6,9.964925E6,1.790192E7,2.26689E6,1.6550758E6,0E0,4.056928E6,5.8946105E6,4.113301E6,1.5387084E7,1.4039416E7,5.218815E5,4.05278E5,4.3964405E6,9.4602425E5,1.0425868E7,8.144395E6,4.096738E6,1.007125E6,2.1447144E5,0E0,2.412816E7,1.5352186E7,0E0,0E0,2.920165E5,2.295115E5,1.9381612E5,5.925766E5,0E0,1.0858149E4,3.4434944E5,1.316774E6,1.5971698E6,2.4331416E7,4.1500322E6,0E0,7.8258375E6,1.9864718E6,5.455535E5,1.526742E5,0E0,0E0,6.122952E6,1.0929978E7,0E0,1.1998827E7,0E0,0E0,0E0,0E0,0E0,0E0,0E0,0E0,0E0,0E0,0E0,0E0,0E0,0E0,0E0,0E0,0E0,0E0,0E0,0E0,0E0,0E0,0E0,0E0,0E0,0E0,0E0,0E0,0E0,0E0,0E0,0E0,0E0,0E0],"parents":[2147483647,0,0,1,1,2,2,3,3,4,4,5,5,6,6,7,7,8,8,10,10,11,11,12,12,13,13,14,14,15,15,16,16,17,17,18,18,19,19,20,20,21,21,22,22,23,23,25,25,26,26,29,29,30,30,31,31,32,32,34,34,35,35,36,36,37,37,38,38,39,39,41,41,42,42,43,43,44,44,47,47,48,48,50,50],"right_children":[2,4,6,8,10,12,14,16,18,-1,20,22,24,26,28,30,32,34,36,38,40,42,44,46,-1,48,50,-1,-1,52,54,56,58,-1,60,62,64,66,68,70,-1,72,74,76,78,-1,-1,80,82,-1,84,-1,-1,-1,-1,-1,-1,-1,-1,-1,-1,-1,-1,-1,-1,-1,-1,-1,-1,-1,-1,-1,-1,-1,-1,-1,-1,-1,-1,-1,-1,-1,-1,-1,-1],"split_conditions":[1.0592916E3,2.8269E2,5.158618E2,9.296667E1,-1.2502917E2,2.4169833E2,4.2347833E2,1.0845834E1,-1.6096666E1,1.5160422E2,2.5881904E-1,2.4596796E2,2.7517166E2,9E0,1.8485167E2,-5.1733334E1,1.0786916E2,3.0425E1,1.2916E2,-2.5881904E-1,5.1E1,1.4E1,2.7528082E2,1.501525E2,1.9759111E2,2E0,7.0238335E1,-1.8934454E1,3.821091E2,-1.44105E2,1.2755E1,1E0,4.370515E2,1.7576964E2,9.662417E1,-1.050425E2,1.3523909E3,3E0,1.3695416E2,1.0592916E3,2.0734583E2,2.8585E1,9.749279E-1,-2.5881904E-1,1.47715E2,-5.1462016E0,4.3831844E1,3.0814667E2,1.0592916E3,3.3805182E2,7.5E1,-8.909442E0,-3.8216648E0,-1.9021893E0,-3.158471E0,-7.8215146E-1,-1.7644901E0,4.1068894E-1,2.7677855E1,-5.985435E0,2.73532E0,1.51035795E1,8.451107E-1,2.414436E0,8.988588E0,5.058654E1,5.4719577E0,9.445074E1,1.7930954E1,4.6208415E0,8.196558E1,1.4400197E2,-4.8593426E0,-1.0850763E1,7.614068E1,-8.533656E1,-3.5285507E1,-1.5227323E1,1.4681162E1,4.7516037E2,8.0361336E1,6.111028E1,2.8143054E2,2.1314075E1,1.3420872E2],"split_indices":[0,0,10,0,5,7,6,0,8,0,26,11,5,15,2,0,7,5,5,26,20,17,2,2,0,16,2,0,0,8,2,22,9,0,0,5,14,20,7,7,0,7,27,26,5,0,0,4,5,0,29,0,0,0,0,0,0,0,0,0,0,0,0,0,0,0,0,0,0,0,0,0,0,0,0,0,0,0,0,0,0,0,0,0,0],"split_type":[0,0,0,0,0,0,0,0,0,0,0,0,0,0,0,0,0,0,0,0,0,0,0,0,0,0,0,0,0,0,0,0,0,0,0,0,0,0,0,0,0,0,0,0,0,0,0,0,0,0,0,0,0,0,0,0,0,0,0,0,0,0,0,0,0,0,0,0,0,0,0,0,0,0,0,0,0,0,0,0,0,0,0,0,0],"sum_hessian":[3.5022E4,3.4892E4,1.3E2,3.3244E4,1.648E3,5.9E1,7.1E1,2.4343E4,8.901E3,1E0,1.647E3,5.3E1,6E0,6.7E1,4E0,8.766E3,1.5577E4,6E0,8.895E3,8.04E2,8.43E2,3.5E1,1.8E1,3E0,3E0,1.8E1,4.9E1,1E0,3E0,2.201E3,6.565E3,1.3411E4,2.166E3,1E0,5E0,4.954E3,3.941E3,4.77E2,3.27E2,8.42E2,1E0,1.3E1,2.2E1,1.3E1,5E0,1E0,2E0,3E0,1.5E1,1E0,4.8E1,1.19E2,2.082E3,4.382E3,2.183E3,1.0951E4,2.46E3,2.159E3,7E0,1E0,4E0,1.6E1,4.938E3,3.609E3,3.32E2,7E0,4.7E2,4.8E1,2.79E2,8.36E2,6E0,6E0,7E0,2E1,2E0,4E0,9E0,3E0,2E0,2E0,1E0,1.3E1,2E0,3.6E1,1.2E1],"tree_param":{"num_deleted":"0","num_feature":"30","num_nodes":"85","size_leaf_vector":"1"}},{"base_weights":[6.621428E-1,-1.6807023E0,6.234433E2,-5.840753E0,9.1913086E1,2.0059692E2,1.1360576E3,-1.3423778E1,1.7205723E1,3.8928726E2,8.232977E1,2.0761665E1,6.7611725E2,1.3826959E3,-3.8777676E2,-2.8000746E1,-7.9648585E0,8.633632E0,2.6906843E1,1.9242395E2,4.6240186E2,7.415061E1,4.3912567E2,-1.1855575E2,4.6927472E2,-1.40641E2,1.3571687E3,4.009237E2,2.056569E3,-9.223711E1,3.3232224E1,-4.261552E1,-2.4292328E1,-1.196101E1,-1.8797882E0,9.621361E0,-6.270741E1,2.2152937E1,7.654604E1,-7.195398E1,1.2579417E3,7.1969185E1,6.7097235E2,1.5086697E3,1.9745592E1,8.004492E2,-1.8451973E2,-1.638722E2,8.854881E2,2.2740366E2,-2.6109012E2,2.5445168E3,3.1516733E2,-3.4241166E0,1.7764111E3,2.920884E3,7.0161993E2,2.8346607E1,-3.1145697E1,-7.9362464E0,-3.7291546E0,-2.0978515E0,-3.4886422E0,-1.1693189E0,-8.004341E0,4.7879788E-1,-9.528104E-1,1.7951996E1,8.988392E-1,-1.5304286E1,-4.1577463E0,5.8939843E0,1.8535883E0,8.791677E1,6.430127E0,-5.099484E1,1.2415403E0,3.0273532E2,-1.313064E1,7.8868766E0,-1.0172356E1,-1.4615218E1,1.9697852E2,2.2133934E2,7.439187E0,7.221891E1,-4.2190604E0,1.2980318E2,-9.730792E0,4.292894E-1,-4.6801323E1,5.090402E0,-2.1702824E1,1.3406462E2,-3.1995733E1,-2.3734982E0,3.6489048E1,-7.0852387E-1,-2.9635008E1,3.2560995E2,-1.5085685E1,-6.5675865E1,1.2083264E2,1.8405699E1,-2.6079512E1,2.2120316E2,1.691512E0,4.0341464E2,1.3593718E2,1.3839764E2,1.021376E1],"categories":[],"categories_nodes":[],"categories_segments":[],"categories_sizes":[],"default_left":[0,0,0,0,0,0,0,0,0,0,0,0,0,0,0,0,0,0,0,0,0,0,0,0,0,0,0,0,0,0,0,0,0,0,0,0,0,0,0,0,0,0,0,0,0,0,0,0,0,0,0,0,0,0,0,0,0,0,0,0,0,0,0,0,0,0,0,0,0,0,0,0,0,0,0,0,0,0,0,0,0,0,0,0,0,0,0,0,0,0,0,0,0,0,0,0,0,0,0,0,0,0,0,0,0,0,0,0,0,0,0],"id":15,"left_children":[1,3,5,7,9,11,13,15,17,19,21,23,25,27,29,31,33,35,37,39,-1,41,43,45,47,49,51,53,55,-1,57,59,61,63,65,67,69,71,73,75,77,79,81,83,85,87,89,91,93,95,97,99,101,103,105,107,109,-1,-1,-1,-1,-1,-1,-1,-1,-1,-1,-1,-1,-1,-1,-1,-1,-1,-1,-1,-1,-1,-1,-1,-1,-1,-1,-1,-1,-1,-1,-1,-1,-1,-1,-1,-1,-1,-1,-1,-1,-1,-1,-1,-1,-1,-1,-1,-1,-1,-1,-1,-1,-1,-1],"loss_changes":[5.1000332E7,1.3559034E7,2.816716E7,5.827145E6,4.191353E6,6.228512E6,2.2710592E7,1.996138E6,6.8624075E5,3.7458252E7,4.160971E6,3.429897E6,1.1316081E7,3.2916312E7,2.0563624E6,3.69399E5,4.4385625E5,3.095194E5,9.1200925E5,1.2767105E7,0E0,1.7821395E6,1.4323513E7,2.6937288E6,3.5709935E6,5.0268272E5,1.2807168E7,1.2242117E7,3.3083368E7,0E0,6.0580206E5,2.6740325E5,1.907355E5,1.9995588E5,3.6911272E5,4.634808E5,1.0814441E5,4.692675E5,3.2652105E6,1.3736538E6,2.2521164E7,1.688189E6,5.59453E6,8.932036E6,1.0746979E6,1.4665538E6,2.1431415E6,7.956414E4,4.818397E6,1.12279516E5,6.951956E4,1.008142E7,6.8702255E6,9.165483E5,3.794722E6,2.5806288E7,5.176284E6,0E0,0E0,0E0,0E0,0E0,0E0,0E0,0E0,0E0,0E0,0E0,0E0,0E0,0E0,0E0,0E0,0E0,0E0,0E0,0E0,0E0,0E0,0E0,0E0,0E0,0E0,0E0,0E0,0E0,0E0,0E0,0E0,0E0,0E0,0E0,0E0,0E0,0E0,0E0,0E0,0E0,0E0,0E0,0E0,0E0,0E0,0E0,0E0,0E0,0E0,0E0,0E0,0E0,0E0],"parents":[2147483647,0,0,1,1,2,2,3,3,4,4,5,5,6,6,7,7,8,8,9,9,10,10,11,11,12,12,13,13,14,14,15,15,16,16,17,17,18,18,19,19,21,21,22,22,23,23,24,24,25,25,26,26,27,27,28,28,30,30,31,31,32,32,33,33,34,34,35,35,36,36,37,37,38,38,39,39,40,40,41,41,42,42,43,43,44,44,45,45,46,46,47,47,48,48,49,49,50,50,51,51,52,52,53,53,54,54,55,55,56,56],"right_children":[2,4,6,8,10,12,14,16,18,20,22,24,26,28,30,32,34,36,38,40,-1,42,44,46,48,50,52,54,56,-1,58,60,62,64,66,68,70,72,74,76,78,80,82,84,86,88,90,92,94,96,98,100,102,104,106,108,110,-1,-1,-1,-1,-1,-1,-1,-1,-1,-1,-1,-1,-1,-1,-1,-1,-1,-1,-1,-1,-1,-1,-1,-1,-1,-1,-1,-1,-1,-1,-1,-1,-1,-1,-1,-1,-1,-1,-1,-1,-1,-1,-1,-1,-1,-1,-1,-1,-1,-1,-1,-1,-1,-1],"split_conditions":[1.0592916E3,2.9275168E2,1.8118584E2,1.0015083E2,6.69534E1,4E0,7.0710677E-1,-1.785E0,1.2916E2,1.7501472E2,1.0592916E3,2.8E1,4.473E1,1.2350494E3,1.4331583E2,-6.247333E1,5.543E1,3.4957834E2,2.5427213E2,-3.8425835E1,4.6240186E2,5.1E1,-3.2291668E1,1E0,6.480666E1,-1.7943333E1,6.549084E1,3.669175E2,2.8280667E2,-9.223711E1,1.9669333E2,-2.3834E2,1.175E1,1.8224028E2,5E-1,-1.050425E2,-7.070417E1,7.763416E1,1.02685E2,4.03775E1,-1.7943333E1,3.5E1,4.636667E0,4.2347833E2,1.7995882E2,1.6282417E2,1.3149E2,-3.9383335E1,3.2120584E2,-4.7753334E1,2E0,3.8705E1,1E0,1.47835E2,3.924E2,3.3483917E2,7E0,2.8346607E1,-3.1145697E1,-7.9362464E0,-3.7291546E0,-2.0978515E0,-3.4886422E0,-1.1693189E0,-8.004341E0,4.7879788E-1,-9.528104E-1,1.7951996E1,8.988392E-1,-1.5304286E1,-4.1577463E0,5.8939843E0,1.8535883E0,8.791677E1,6.430127E0,-5.099484E1,1.2415403E0,3.0273532E2,-1.313064E1,7.8868766E0,-1.0172356E1,-1.4615218E1,1.9697852E2,2.2133934E2,7.439187E0,7.221891E1,-4.2190604E0,1.2980318E2,-9.730792E0,4.292894E-1,-4.6801323E1,5.090402E0,-2.1702824E1,1.3406462E2,-3.1995733E1,-2.3734982E0,3.6489048E1,-7.0852387E-1,-2.9635008E1,3.2560995E2,-1.5085685E1,-6.5675865E1,1.2083264E2,1.8405699E1,-2.6079512E1,2.2120316E2,1.691512E0,4.0341464E2,1.3593718E2,1.3839764E2,1.021376E1],"split_indices":[0,0,5,0,10,16,26,0,5,9,5,17,5,8,4,0,5,1,12,13,0,20,13,15,6,1,5,7,7,0,4,13,2,8,26,5,13,1,0,9,3,20,3,1,10,1,4,4,2,1,15,6,23,3,1,5,17,0,0,0,0,0,0,0,0,0,0,0,0,0,0,0,0,0,0,0,0,0,0,0,0,0,0,0,0,0,0,0,0,0,0,0,0,0,0,0,0,0,0,0,0,0,0,0,0,0,0,0,0,0,0],"split_type":[0,0,0,0,0,0,0,0,0,0,0,0,0,0,0,0,0,0,0,0,0,0,0,0,0,0,0,0,0,0,0,0,0,0,0,0,0,0,0,0,0,0,0,0,0,0,0,0,0,0,0,0,0,0,0,0,0,0,0,0,0,0,0,0,0,0,0,0,0,0,0,0,0,0,0,0,0,0,0,0,0,0,0,0,0,0,0,0,0,0,0,0,0,0,0,0,0,0,0,0,0,0,0,0,0,0,0,0,0,0,0],"sum_hessian":[3.4952E4,3.4822E4,1.3E2,3.3341E4,1.481E3,7.2E1,5.8E1,2.5087E4,8.254E3,4.5E1,1.436E3,5.3E1,1.9E1,5E1,8E0,6.834E3,1.8253E4,4.383E3,3.871E3,4.4E1,1E0,1.405E3,3.1E1,4.1E1,1.2E1,9E0,1E1,2.1E1,2.9E1,3E0,5E0,1.381E3,5.453E3,1.1017E4,7.236E3,4.324E3,5.9E1,3.534E3,3.37E2,3.6E1,8E0,1.401E3,4E0,8E0,2.3E1,2E0,3.9E1,5E0,7E0,2E0,7E0,4E0,6E0,1.7E1,4E0,1.7E1,1.2E1,3E0,2E0,1.73E2,1.208E3,4.156E3,1.297E3,1.0975E4,4.2E1,3.866E3,3.37E3,1.5E1,4.309E3,1E1,4.9E1,3.15E2,3.219E3,4E0,3.33E2,5E0,3.1E1,3E0,5E0,1.348E3,5.3E1,3E0,1E0,5E0,3E0,1E0,2.2E1,1E0,1E0,2.4E1,1.5E1,1E0,4E0,5E0,2E0,1E0,1E0,1E0,6E0,3E0,1E0,3E0,3E0,1E1,7E0,3E0,1E0,9E0,8E0,5E0,7E0],"tree_param":{"num_deleted":"0","num_feature":"30","num_nodes":"111","size_leaf_vector":"1"}},{"base_weights":[1.6206418E-1,-3.1731987E0,2.0263481E2,-1.0940687E1,2.3907433E1,1.8521025E3,1.9055557E2,-2.2561592E1,-4.7422366E0,1.2507408E1,4.481687E1,-2.1185712E2,4.0220407E2,1.4342625E2,6.064137E2,-2.8305513E1,-1.5544831E1,9.063578E0,-6.4405117E0,7.503248E-1,1.7314909E1,4.3050854E1,7.1856915E2,-9.3806565E-1,-3.0835505E1,1.05160225E2,5.43697E2,4.2109216E2,2.9566257E3,-1.1184775E2,-2.7440508E1,-1.1752747E1,-2.1579428E1,-7.1127048E0,1.9386488E1,-1.2155241E1,-1.8330945E0,5.255168E0,-1.8352575E1,3.0280928E1,9.888876E0,1.4398518E2,3.6752796E1,-8.511506E1,1.8185532E2,8.556836E1,7.2877966E2,1.741346E3,2.7004868E2,1.3288502E3,3.9058719E0,7.583257E1,3.436584E2,-3.5089245E1,-9.004925E0,-3.2123203E0,-1.7308668E0,-1.7708212E0,-1.9535276E-1,-3.497371E0,-1.9893534E0,1.244833E0,-1.0275474E0,2.7624912E1,1.6473478E0,-9.8362255E-1,-2.6007888E0,4.4096287E-2,-1.4568931E0,-6.3331836E-1,1.1763806E0,-2.3775099E-1,-3.3739407E0,8.1556845E-1,6.306689E0,7.9545015E-1,7.882351E0,1.1148999E2,5.654699E0,1.3149961E0,5.432821E0,1.7512368E0,-1.5940413E1,-1.5456886E1,1.2140202E1,1.3898131E2,-1.3078414E1,-2.9968073E1,2.4716516E2,1.5621747E0,1.0598523E2,-7.169201E1,2.0134734E2,-5.3931072E1,2.1717648E1],"categories":[],"categories_nodes":[],"categories_segments":[],"categories_sizes":[],"default_left":[0,0,0,0,0,0,0,0,0,0,0,0,0,0,0,0,0,0,0,0,0,0,0,0,0,0,0,0,0,0,0,0,0,0,0,0,0,0,0,0,0,0,0,0,0,0,0,0,0,0,0,0,0,0,0,0,0,0,0,0,0,0,0,0,0,0,0,0,0,0,0,0,0,0,0,0,0,0,0,0,0,0,0,0,0,0,0,0,0,0,0,0,0,0,0],"id":16,"left_children":[1,3,5,7,9,11,13,15,17,19,21,23,-1,25,27,29,31,33,35,37,39,41,43,-1,-1,45,47,49,51,53,55,57,59,61,63,65,67,69,71,73,75,77,79,81,-1,83,85,87,89,91,93,-1,-1,-1,-1,-1,-1,-1,-1,-1,-1,-1,-1,-1,-1,-1,-1,-1,-1,-1,-1,-1,-1,-1,-1,-1,-1,-1,-1,-1,-1,-1,-1,-1,-1,-1,-1,-1,-1,-1,-1,-1,-1,-1,-1],"loss_changes":[2.358551E7,7.227834E6,1.0924022E7,1.923278E6,1.825095E6,1.8767138E7,1.094725E7,3.738965E5,4.0837153E5,2.8022225E5,3.1839855E6,5.5691312E4,0E0,7.708365E6,2.3580704E7,3.6589925E5,9.5465625E4,3.18749E5,4.0830412E5,1.24015164E5,3.3852725E5,1.708512E6,6.343237E6,0E0,0E0,5.6066495E6,1.3949872E7,2.0444704E7,1.6139E6,2.3932069E5,2.3927025E5,1.5000416E5,3.5722375E4,4.6156773E4,8.671234E5,2.2210631E5,2.4870469E5,8.8019875E4,6.7512734E4,9.287125E5,2.9792466E5,1.3350255E7,1.0525312E6,4.0926207E4,0E0,3.8996145E6,8.136696E6,1.2665508E7,7.418385E6,2.525352E7,4.5194745E6,0E0,0E0,0E0,0E0,0E0,0E0,0E0,0E0,0E0,0E0,0E0,0E0,0E0,0E0,0E0,0E0,0E0,0E0,0E0,0E0,0E0,0E0,0E0,0E0,0E0,0E0,0E0,0E0,0E0,0E0,0E0,0E0,0E0,0E0,0E0,0E0,0E0,0E0,0E0,0E0,0E0,0E0,0E0,0E0],"parents":[2147483647,0,0,1,1,2,2,3,3,4,4,5,5,6,6,7,7,8,8,9,9,10,10,11,11,13,13,14,14,15,15,16,16,17,17,18,18,19,19,20,20,21,21,22,22,25,25,26,26,27,27,28,28,29,29,30,30,31,31,32,32,33,33,34,34,35,35,36,36,37,37,38,38,39,39,40,40,41,41,42,42,43,43,45,45,46,46,47,47,48,48,49,49,50,50],"right_children":[2,4,6,8,10,12,14,16,18,20,22,24,-1,26,28,30,32,34,36,38,40,42,44,-1,-1,46,48,50,52,54,56,58,60,62,64,66,68,70,72,74,76,78,80,82,-1,84,86,88,90,92,94,-1,-1,-1,-1,-1,-1,-1,-1,-1,-1,-1,-1,-1,-1,-1,-1,-1,-1,-1,-1,-1,-1,-1,-1,-1,-1,-1,-1,-1,-1,-1,-1,-1,-1,-1,-1,-1,-1,-1,-1,-1,-1,-1,-1],"split_conditions":[4.2347833E2,1.1718667E2,5.05975E1,1.472E1,2.147025E2,-1.4163333E1,1.2768115E3,-5E-1,9.245E0,5.7895E1,5.1E1,4.7860834E2,4.0220407E2,9.659258E-1,8.660254E-1,-1.24260414E2,5E-1,9.9285835E1,5.21925E1,1E0,2.5881904E-1,1.2E1,4.4205E1,-9.3806565E-1,-3.0835505E1,1.0592916E3,2.1E1,6.4825E1,1.88805E2,1.2E1,1.4E1,-1.8369701E-16,-2.9891388E1,-9.659258E-1,1.0045583E2,6.934333E1,1.2733417E2,9.889083E1,3.1E1,1.5E1,4.1339542E2,-9.659258E-1,1.847625E2,1.5216417E2,1.8185532E2,2E1,-8.660254E-1,4.473E1,2.4E1,4.268884E2,7.0834067E3,7.583257E1,3.436584E2,-3.5089245E1,-9.004925E0,-3.2123203E0,-1.7308668E0,-1.7708212E0,-1.9535276E-1,-3.497371E0,-1.9893534E0,1.244833E0,-1.0275474E0,2.7624912E1,1.6473478E0,-9.8362255E-1,-2.6007888E0,4.4096287E-2,-1.4568931E0,-6.3331836E-1,1.1763806E0,-2.3775099E-1,-3.3739407E0,8.1556845E-1,6.306689E0,7.9545015E-1,7.882351E0,1.1148999E2,5.654699E0,1.3149961E0,5.432821E0,1.7512368E0,-1.5940413E1,-1.5456886E1,1.2140202E1,1.3898131E2,-1.3078414E1,-2.9968073E1,2.4716516E2,1.5621747E0,1.0598523E2,